{"internalDocumentIDStore":{"internalIdToId":["da1bc8c4a2c770e2279eca4ef492bb62","169ab55cde4e17f9a82275fdb473cc1e","6ee416f1c3592dfc81980b4d12cea614","47b52ef96a920ab33159b46456c1ee60","7afb3aa06c849214862fc3641959d7eb","8cd9221f665cd0b9810cef9fed70dd57"]},"index":{"indexes":{"id":{"type":"Radix","node":{"w":"","s":"","c":{"1":{"w":"169ab55cde4e17f9a82275fdb473cc1e","s":"169ab55cde4e17f9a82275fdb473cc1e","c":{},"d":[],"e":true},"4":{"w":"47b52ef96a920ab33159b46456c1ee60","s":"47b52ef96a920ab33159b46456c1ee60","c":{},"d":[4],"e":true},"6":{"w":"6ee416f1c3592dfc81980b4d12cea614","s":"6ee416f1c3592dfc81980b4d12cea614","c":{},"d":[],"e":true},"7":{"w":"7afb3aa06c849214862fc3641959d7eb","s":"7afb3aa06c849214862fc3641959d7eb","c":{},"d":[5],"e":true},"8":{"w":"8cd9221f665cd0b9810cef9fed70dd57","s":"8cd9221f665cd0b9810cef9fed70dd57","c":{},"d":[6],"e":true},"d":{"w":"da1bc8c4a2c770e2279eca4ef492bb62","s":"da1bc8c4a2c770e2279eca4ef492bb62","c":{},"d":[],"e":true}},"d":[],"e":false},"isArray":false},"title":{"type":"Radix","node":{"w":"","s":"","c":{},"d":[],"e":false},"isArray":false},"path":{"type":"Radix","node":{"w":"","s":"","c":{"r":{"w":"redis","s":"redis","c":{},"d":[6,4,5],"e":true},"m":{"w":"md","s":"md","c":{},"d":[6,4,5],"e":true}},"d":[],"e":false},"isArray":false},"content":{"type":"Radix","node":{"w":"","s":"","c":{"0":{"w":"0","s":"0","c":{"4":{"w":"04","s":"4","c":{},"d":[6,4,5],"e":true},"5":{"w":"05","s":"5","c":{},"d":[4],"e":true}},"d":[6,4],"e":true},"1":{"w":"1","s":"1","c":{"0":{"w":"10","s":"0","c":{"0":{"w":"10000","s":"000","c":{},"d":[6],"e":true}},"d":[6],"e":true},"1":{"w":"11","s":"1","c":{},"d":[5],"e":true},"2":{"w":"12","s":"2","c":{},"d":[4],"e":true},"3":{"w":"13","s":"3","c":{},"d":[6,4,5],"e":true},"4":{"w":"14","s":"4","c":{},"d":[4],"e":true},"5":{"w":"15","s":"5","c":{},"d":[5],"e":true},"6":{"w":"16","s":"6","c":{},"d":[6],"e":true}},"d":[6,4,5],"e":true},"2":{"w":"2","s":"2","c":{"0":{"w":"2025","s":"025","c":{},"d":[6,4,5],"e":true},"6":{"w":"26","s":"6","c":{},"d":[],"e":true},"7":{"w":"27","s":"7","c":{},"d":[6,4,5],"e":true},"8":{"w":"28","s":"8","c":{},"d":[4],"e":true},"9":{"w":"29","s":"9","c":{},"d":[],"e":true}},"d":[6,4,5],"e":true},"3":{"w":"3","s":"3","c":{"0":{"w":"300","s":"00","c":{},"d":[6],"e":true}},"d":[6,4,5],"e":true},"4":{"w":"4","s":"4","c":{"1":{"w":"41","s":"1","c":{},"d":[],"e":true},"9":{"w":"49","s":"9","c":{},"d":[6],"e":true}},"d":[4,5],"e":true},"5":{"w":"5","s":"5","c":{"0":{"w":"50","s":"0","c":{},"d":[],"e":true},"2":{"w":"52","s":"2","c":{},"d":[6],"e":true},"3":{"w":"53","s":"3","c":{},"d":[],"e":true},"5":{"w":"55","s":"5","c":{},"d":[4],"e":true},"6":{"w":"56","s":"6","c":{},"d":[5],"e":true},"8":{"w":"58","s":"8","c":{},"d":[6,5],"e":true}},"d":[],"e":false},"6":{"w":"6","s":"6","c":{"0":{"w":"60","s":"0","c":{},"d":[6],"e":true}},"d":[4],"e":true},"8":{"w":"8","s":"8","c":{},"d":[4],"e":true},"9":{"w":"900","s":"900","c":{},"d":[6],"e":true},"n":{"w":"n","s":"n","c":{"o":{"w":"no","s":"o","c":{"t":{"w":"note","s":"te","c":{},"d":[6,4,5],"e":true}},"d":[6],"e":true}},"d":[4],"e":true},"t":{"w":"title","s":"title","c":{},"d":[6,4,5],"e":true},"m":{"w":"m","s":"m","c":{"e":{"w":"metadata","s":"etadata","c":{},"d":[6,4,5],"e":true},"o":{"w":"modified","s":"odified","c":{},"d":[6,4,5],"e":true}},"d":[],"e":false},"c":{"w":"c","s":"c","c":{"r":{"w":"created","s":"reated","c":{},"d":[6,4,5],"e":true},"o":{"w":"co","s":"o","c":{"n":{"w":"con","s":"n","c":{"t":{"w":"content","s":"tent","c":{},"d":[6,4,5],"e":true},"f":{"w":"conf","s":"f","c":{},"d":[6],"e":true}},"d":[],"e":false},"p":{"w":"copy","s":"py","c":{},"d":[6],"e":true}},"d":[],"e":false},"a":{"w":"cache","s":"ache","c":{},"d":[6],"e":true},"p":{"w":"cpu","s":"pu","c":{},"d":[6],"e":true}},"d":[],"e":false},"b":{"w":"b","s":"b","c":{"l":{"w":"block","s":"lock","c":{},"d":[6,4,5],"e":true},"g":{"w":"bg","s":"g","c":{"r":{"w":"bgrewriteaof","s":"rewriteaof","c":{},"d":[6],"e":true},"s":{"w":"bgsave","s":"save","c":{},"d":[6],"e":true}},"d":[],"e":false}},"d":[],"e":false},"r":{"w":"r","s":"r","c":{"e":{"w":"redis","s":"edis","c":{"4":{"w":"redis4","s":"4","c":{},"d":[6],"e":true}},"d":[6,5],"e":true},"d":{"w":"rdb","s":"db","c":{},"d":[6],"e":true}},"d":[],"e":false},"k":{"w":"key","s":"key","c":{},"d":[5],"e":true},"a":{"w":"a","s":"a","c":{"o":{"w":"aof","s":"of","c":{"_":{"w":"aof_buf","s":"_buf","c":{},"d":[6],"e":true},"-":{"w":"aof-use-rdb-preamble","s":"-use-rdb-preamble","c":{},"d":[6],"e":true}},"d":[6],"e":true},"p":{"w":"ap","s":"p","c":{"p":{"w":"append","s":"pend","c":{"o":{"w":"appendonly","s":"only","c":{},"d":[6],"e":true},"f":{"w":"appendf","s":"f","c":{"i":{"w":"appendfilename","s":"ilename","c":{},"d":[6],"e":true},"s":{"w":"appendfsync","s":"sync","c":{},"d":[6],"e":true}},"d":[],"e":false}},"d":[6],"e":true},"i":{"w":"api","s":"i","c":{},"d":[5],"e":true}},"d":[],"e":false},"l":{"w":"always","s":"lways","c":{},"d":[6],"e":true}},"d":[],"e":false},"o":{"w":"on","s":"on","c":{"l":{"w":"only","s":"ly","c":{},"d":[6],"e":true}},"d":[6],"e":true},"f":{"w":"f","s":"f","c":{"i":{"w":"file","s":"ile","c":{},"d":[6],"e":true},"o":{"w":"fork","s":"ork","c":{},"d":[6],"e":true}},"d":[],"e":false},"s":{"w":"s","s":"s","c":{"h":{"w":"shell","s":"hell","c":{},"d":[6],"e":true},"e":{"w":"server","s":"erver","c":{},"d":[6],"e":true},"a":{"w":"save","s":"ave","c":{},"d":[6],"e":true}},"d":[],"e":false},"y":{"w":"y","s":"y","c":{"e":{"w":"yes","s":"es","c":{},"d":[6],"e":true}},"d":[4],"e":true},"i":{"w":"im","s":"im","c":{"g":{"w":"img","s":"g","c":{},"d":[6,4,5],"e":true},"a":{"w":"images","s":"ages","c":{},"d":[6,4,5],"e":true}},"d":[],"e":false},"w":{"w":"w","s":"w","c":{"e":{"w":"webp","s":"ebp","c":{},"d":[6,4,5],"e":true},"r":{"w":"write","s":"rite","c":{},"d":[6],"e":true}},"d":[],"e":false},"p":{"w":"page","s":"page","c":{},"d":[6],"e":true},"e":{"w":"everysec","s":"everysec","c":{},"d":[6],"e":true},"x":{"w":"x","s":"x","c":{},"d":[4],"e":true}},"d":[],"e":false},"isArray":false},"embeddingModel":{"type":"Radix","node":{"w":"","s":"","c":{"b":{"w":"bge-m3","s":"bge-m3","c":{},"d":[6,4,5],"e":true}},"d":[],"e":false},"isArray":false},"created_at":{"type":"AVL","node":{"root":{"k":1745743917761,"v":[6],"l":{"k":0,"v":[],"l":null,"r":null,"h":0},"r":{"k":1745743917763,"v":[4],"l":null,"r":{"k":1745743917765,"v":[5],"l":null,"r":null,"h":0},"h":1},"h":2}},"isArray":false},"ctime":{"type":"AVL","node":{"root":{"k":1745729705916,"v":[4],"l":{"k":0,"v":[],"l":null,"r":{"k":1745723756064,"v":[5],"l":null,"r":null,"h":0},"h":1},"r":{"k":1745731012764,"v":[6],"l":null,"r":null,"h":0},"h":2}},"isArray":false},"mtime":{"type":"AVL","node":{"root":{"k":1745730868647,"v":[4],"l":{"k":0,"v":[],"l":null,"r":null,"h":0},"r":{"k":1745743798465,"v":[6],"l":{"k":1745730958792,"v":[5],"l":null,"r":null,"h":0},"r":null,"h":1},"h":2}},"isArray":false},"tags":{"type":"Radix","node":{"w":"","s":"","c":{},"d":[],"e":false},"isArray":true},"extension":{"type":"Radix","node":{"w":"","s":"","c":{"m":{"w":"md","s":"md","c":{},"d":[6,4,5],"e":true}},"d":[],"e":false},"isArray":false}},"vectorIndexes":{"embedding":{"size":1024,"vectors":{"8cd9221f665cd0b9810cef9fed70dd57":[1.0000002238272874,[-0.006810425780713558,0.0028207364957779646,-0.02092164196074009,0.01682538352906704,-0.018034329637885094,-0.009741663932800293,0.053357794880867004,0.07611869275569916,-0.00686555914580822,-0.00875549204647541,-0.007073829881846905,0.012361522763967514,-0.013519031926989555,0.02413969300687313,0.01246676780283451,-0.05196331441402435,-0.01373018603771925,-0.00299630593508482,0.00096262211445719,-0.011198689229786396,-0.016029709950089455,-0.026824962347745895,0.030953722074627876,-0.018871603533625603,-0.026787616312503815,0.07876849174499512,-0.00937836617231369,-0.013789616525173187,-0.00839937198907137,0.021438077092170715,0.021002182736992836,0.0008291282574646175,0.006717241369187832,-0.016476796939969063,-0.0021207176614552736,-0.024433545768260956,-0.028638912364840508,-0.028460051864385605,-0.11223917454481125,-0.027551323175430298,0.020010629668831825,0.005554433912038803,-0.045617494732141495,0.01572064310312271,0.010932741686701775,0.012084790505468845,0.000724269833881408,-0.06403203308582306,-0.004973309114575386,0.0005242411862127483,-0.02887105382978916,-0.02120939828455448,-0.02232808992266655,-0.05054432153701782,0.015144125558435917,0.029367990791797638,0.0014250539243221283,-0.008263025432825089,-0.008148659020662308,-0.02487233094871044,-0.014041561633348465,0.015395128168165684,-0.023749854415655136,-0.029801776632666588,-0.02431122586131096,0.02605312317609787,0.02710762433707714,0.03819698840379715,0.02505478821694851,-0.05548637732863426,-0.028058959171175957,-0.000761857780162245,-0.02118823677301407,-0.05402117222547531,-0.013077130541205406,0.007713234983384609,0.02831759676337242,0.0165387149900198,0.0009151416015811265,-0.054237596690654755,0.1279953271150589,-0.03863691911101341,0.015368564054369926,-0.017648402601480484,-0.0317547433078289,-0.025658098980784416,-0.0004586878640111536,0.03819781541824341,-0.00577050494030118,0.012637397274374962,-0.020352235063910484,0.05821622908115387,-0.0021936295088380575,-0.0630030557513237,-0.029934002086520195,0.01742805354297161,0.03254782035946846,-0.03558068349957466,0.007560808211565018,-0.010018550790846348,-0.055765654891729355,-0.014035194180905819,-0.0005708266980946064,0.053017061203718185,0.015249534510076046,0.022070707753300667,0.009252737276256084,0.027355441823601723,-0.050802458077669144,0.012978475540876389,-0.04898747429251671,-0.005905072670429945,-0.01723874732851982,0.0027272524312138557,0.012876044027507305,-0.03313914313912392,-0.017490366473793983,-0.01907094568014145,0.018210560083389282,-0.0018542088801041245,0.014815130271017551,0.04260781779885292,0.018195554614067078,-0.017428044229745865,0.012302106246352196,-0.006683973595499992,-0.0055409627966582775,0.05510437488555908,-0.043458737432956696,0.011668345890939236,0.010948462411761284,0.054618820548057556,0.04027458280324936,-0.034743782132864,-0.054134551435709,-0.004740446340292692,0.03500443696975708,0.05579852685332298,0.043898217380046844,-0.03019586205482483,0.01838214509189129,0.004411136731505394,-0.018891334533691406,-0.0031916312873363495,0.07457779347896576,-0.008234415203332901,0.007740315981209278,0.0025777160190045834,-0.0307114627212286,0.033119071274995804,-0.04140835627913475,-0.03520254045724869,-0.016601668670773506,-0.0035246028564870358,-0.008694623596966267,0.02837606891989708,0.03781302645802498,-0.005889049731194973,0.028057117015123367,-0.016008546575903893,0.02119295485317707,-0.015447938814759254,0.037508223205804825,0.031629420816898346,0.0446564257144928,0.005501817911863327,0.011436248198151588,0.02018984965980053,-0.006284289062023163,0.0032096276991069317,0.0005911350017413497,-0.06916049122810364,0.05053602531552315,0.015247010625898838,0.05458971485495567,0.05830508470535278,0.02843574434518814,0.043836917728185654,0.04291756823658943,-0.04266304150223732,-0.015684662386775017,0.018499398604035378,0.034531887620687485,-0.03927091881632805,0.013944108970463276,-0.007217443082481623,0.02799566648900509,-0.0003935596323572099,0.00802657101303339,0.04142871871590614,0.005152735393494368,-0.0063552651554346085,0.03899841383099556,0.023764995858073235,0.009480091743171215,-0.009625595062971115,-0.012615706771612167,-0.0009077658760361373,0.042885467410087585,-0.040181417018175125,-0.036477819085121155,0.019765861332416534,-0.024469709023833275,-0.0014949665637686849,0.009454612620174885,0.0009328926098532975,-0.02920563519001007,-0.075321726500988,0.021030131727457047,-0.011877805925905704,0.028452038764953613,-0.014486071653664112,-0.004117435310035944,0.02122213877737522,-0.009812438860535622,-0.009177569299936295,-0.008969292044639587,-0.013342994265258312,0.004170253407210112,-0.011889628134667873,-0.028166446834802628,-0.03369319438934326,0.0026959674432873726,-0.03701134771108627,-0.020445851609110832,0.03218339756131172,0.0015147653175517917,0.044268857687711716,0.02647377736866474,0.01896711252629757,-0.0437333881855011,0.08451984077692032,-0.019286470487713814,-0.02897573448717594,-0.0028141504153609276,0.018946301192045212,-0.04969744384288788,0.03319403529167175,0.010659283958375454,0.012529534287750721,-0.0021889503113925457,-0.04477610066533089,-0.018465561792254448,-0.025403626263141632,-0.06377578526735306,0.05008111149072647,-0.02292051538825035,0.045296575874090195,-0.05083320289850235,0.012778160162270069,-0.038153715431690216,-0.007809136528521776,-0.024014364928007126,-0.02737720124423504,0.005781827960163355,-0.044036123901605606,-0.027857860550284386,-0.028389349579811096,0.015232362784445286,0.03656570985913277,0.023442111909389496,-0.009650270454585552,0.01124043483287096,0.04695748910307884,-0.0024297735653817654,0.0033477297984063625,0.003794627031311393,-0.017414093017578125,0.0030248137190937996,0.05487184599041939,0.01131915021687746,0.025587137788534164,-0.02891104854643345,0.01431544404476881,0.009692730382084846,-0.025178154930472374,0.010878283530473709,-0.04059406742453575,0.04321614280343056,-0.027140865102410316,-0.008104904554784298,-0.02260759100317955,-0.009292308241128922,-0.021816693246364594,-0.01639602519571781,0.04475463181734085,-0.010770149528980255,0.018293866887688637,0.02666027471423149,-0.020749010145664215,-0.039062149822711945,-0.010515826754271984,0.08623627573251724,-0.024713343009352684,0.002646026434376836,0.0037907701916992664,-0.028307033702731133,-0.17155641317367554,-0.05471484363079071,0.039761874824762344,0.013073306530714035,0.009840333834290504,-0.007135539315640926,0.024797970429062843,-0.02103179134428501,-0.01627160981297493,-0.0323544442653656,-0.01640871912240982,-0.14851827919483185,-0.016137458384037018,-0.027144253253936768,0.03481513634324074,0.015421812422573566,0.0434831939637661,0.011751790530979633,-0.006651423405855894,-0.07340498268604279,-0.0012039568973705173,0.012841029092669487,0.059783898293972015,0.04965021833777428,0.006332287564873695,0.0056756287813186646,0.03951045498251915,0.07374972105026245,-0.022004341706633568,0.006478329189121723,-0.011106904596090317,0.030063649639487267,-0.02387920953333378,-0.04221680760383606,0.012206066399812698,0.03758862987160683,0.01232285425066948,-0.014981782995164394,0.026355966925621033,-0.004758852533996105,0.01781809702515602,0.03607049956917763,0.006936343852430582,-0.05680524557828903,0.05205914005637169,-0.005230355076491833,0.0019604344852268696,-0.039747219532728195,0.003608390223234892,0.028760051354765892,0.020112229511141777,0.015321829356253147,0.024009311571717262,-0.011601410806179047,-0.006398171652108431,0.014109771698713303,0.008199486881494522,0.06572365015745163,0.009856629185378551,0.01845376007258892,0.0021750032901763916,-0.04664373770356178,-0.006121919956058264,0.00186633481644094,0.0029791449196636677,0.0047218636609613895,-0.009448543190956116,-0.030590463429689407,-0.01763620786368847,-0.0409342497587204,-0.006504529155790806,-0.01578821800649166,-0.03667562082409859,-0.03478814288973808,-0.008987708948552608,0.006811466533690691,-0.0180621650069952,-0.010246277786791325,-0.01918347179889679,-0.09429026395082474,0.03710460662841797,0.0012110413517802954,-0.020811961963772774,0.031148161739110947,0.005039081443101168,0.016888853162527084,-0.05575030669569969,-0.02589288167655468,0.010833007283508778,0.33425378799438477,-0.007125777658075094,-0.02963528223335743,0.020436543971300125,0.044071443378925323,0.010460508987307549,0.02686646580696106,0.007895071990787983,0.03590872883796692,-0.010625594295561314,0.005780549719929695,-0.013300718739628792,-0.004794308915734291,0.028974788263440132,0.04544627293944359,0.03376058489084244,-0.038196999579668045,-0.00004660946797230281,-0.019320039078593254,-0.02953174151480198,0.036763496696949005,-0.04392131790518761,0.0360117182135582,0.017897069454193115,-0.038473524153232574,0.004229679238051176,0.005770017858594656,-0.0033321590162813663,-0.04031301662325859,0.002888483228161931,-0.011465263552963734,-0.008530180901288986,-0.021249918267130852,-0.024872085079550743,-0.040831372141838074,0.009408479556441307,-0.05947268381714821,-0.04928647354245186,-0.008814286440610886,0.025533635169267654,-0.002455940470099449,-0.03036915510892868,-0.00014938368985895067,0.012130585499107838,-0.05297769233584404,-0.01851598545908928,0.009404638782143593,-0.012127532623708248,-0.020782090723514557,-0.021446220576763153,0.015301715582609177,-0.0047675203531980515,-0.030085844919085503,0.027173776179552078,-0.019963830709457397,-0.010348603129386902,-0.021074336022138596,0.010841050185263157,-0.02672904171049595,0.03333405777812004,0.011810082010924816,0.016532814130187035,-0.04373553395271301,0.02618807554244995,0.00917334295809269,0.01122347079217434,-0.02784673124551773,-0.043525032699108124,-0.01663222350180149,0.0022264195140451193,0.04634774103760719,0.026668349280953407,0.03142823651432991,0.008790886029601097,-0.009323096834123135,-0.008807172067463398,-0.0031338143162429333,0.0497799888253212,-0.02747773751616478,-0.0051280963234603405,-0.018157195299863815,0.010144365951418877,0.02388768643140793,0.029843177646398544,0.012082160450518131,0.017239155247807503,-0.031077055260539055,0.025109322741627693,-0.0038746194913983345,-0.038382213562726974,0.013902641832828522,-0.016715914011001587,0.005384504329413176,0.0024115198757499456,0.052084702998399734,-0.0043900394812226295,0.008352003991603851,-0.06212620437145233,0.0077140601351857185,-0.016361646354198456,0.02022610977292061,0.034169428050518036,0.005946740508079529,-0.0020727324299514294,0.001990426564589143,-0.00868129450827837,0.0034485775977373123,-0.031102443113923073,-0.012301984243094921,-0.016696825623512268,-0.03820878639817238,0.008013333193957806,0.004891742020845413,-0.02968669682741165,0.05719633400440216,0.010653069242835045,0.024002481251955032,-0.0044192164205014706,0.005684944801032543,0.035405151546001434,-0.02271595224738121,-0.04845765233039856,0.026311540976166725,0.01625228486955166,-0.027219971641898155,-0.07925231009721756,0.025522509589791298,-0.03561573475599289,-0.00348903751000762,-0.003766543697565794,0.014570115134119987,0.021228963509202003,-0.025670552626252174,0.02252171002328396,-0.019247999414801598,-0.019434014335274696,-0.0020637926645576954,-0.010765700601041317,0.009579095989465714,0.07667654752731323,0.01788485236465931,-0.04485582560300827,-0.007143950555473566,0.03444499149918556,-0.043608542531728745,-0.01772220991551876,0.016070926561951637,-0.004463525023311377,-0.01222475990653038,-0.006621655076742172,0.014109370298683643,-0.003603588789701462,0.010185380466282368,-0.018384678289294243,-0.027584776282310486,0.001491402741521597,0.005120340269058943,-0.007931332103908062,-0.007905070669949055,-0.037602853029966354,-0.015180078335106373,0.025554263964295387,0.024870004504919052,0.06393066048622131,0.03508945181965828,0.023646026849746704,0.02316717617213726,0.05108899995684624,-0.00441821338608861,-0.005332137458026409,0.016452951356768608,-0.048911843448877335,0.009274061769247055,0.015978103503584862,0.02855178341269493,-0.016190409660339355,-0.027534455060958862,0.028876179829239845,0.016041433438658714,0.007141859736293554,0.05909997224807739,0.01873733103275299,-0.028264597058296204,0.009893450886011124,-0.031698379665613174,0.004136258736252785,-0.02130614034831524,0.017680063843727112,0.013214483857154846,-0.027086501941084862,-0.002086447784677148,0.05431457981467247,-0.01001211628317833,0.009786748327314854,0.015766583383083344,0.011353525333106518,-0.00983031652867794,-0.006988266948610544,-0.016768205910921097,0.009298081509768963,0.021125778555870056,0.010181482881307602,0.0069353291764855385,0.022906262427568436,0.052772536873817444,-0.019099509343504906,0.028631191700696945,0.031260550022125244,0.0014947708696126938,-0.04434806481003761,-0.0059010484255850315,0.007455222774296999,-0.009725149720907211,0.001701743109151721,-0.00873127393424511,-0.04317594692111015,0.027640504762530327,0.03293730318546295,0.018341876566410065,-0.004800050053745508,-0.0281760822981596,-0.038350895047187805,0.00482769263908267,-0.04957526922225952,-0.015582379885017872,0.0252335574477911,0.007874838076531887,-0.03209778293967247,-0.02041037753224373,-0.00033785958657972515,-0.017847316339612007,-0.011208447627723217,0.01064223051071167,-0.031015614047646523,-0.02932887338101864,-0.0029460762161761522,0.0046471720561385155,-0.004054732155054808,0.037770628929138184,0.01260821521282196,-0.015636559575796127,0.003942353650927544,0.028182340785861015,0.03335823118686676,0.00526677630841732,-0.006890140473842621,-0.03720643371343613,0.03994309902191162,-0.017067041248083115,0.00397899653762579,0.002037106081843376,0.005257888231426477,-0.09721021354198456,-0.04754357039928436,-0.002255614846944809,0.06582453101873398,0.012673696503043175,-0.044826846569776535,-0.008789146319031715,0.007577659096568823,0.0078019616194069386,0.013136270456016064,-0.002752913162112236,-0.0035323225893080235,0.029104886576533318,0.015492470003664494,-0.03381667658686638,-0.043442320078611374,0.0038747016806155443,-0.03826608881354332,-0.0019719761330634356,-0.04589920863509178,-0.03440960496664047,-0.012336265295743942,-0.003423665650188923,-0.025616569444537163,0.013610021211206913,-0.024371188133955002,0.0007178181549534202,-0.0062658172100782394,-0.08025217056274414,-0.010215634480118752,0.005199939012527466,0.012668809853494167,-0.026267848908901215,-0.025071660056710243,0.0006040021544322371,0.010808533057570457,-0.03290441632270813,0.0016500403871759772,0.012502805329859257,0.013398081064224243,-0.07098501920700073,-0.005346610676497221,0.010114350356161594,0.03396085277199745,-0.013899185694754124,0.01832243986427784,0.018707092851400375,0.02822660654783249,0.016105160117149353,0.014490313827991486,-0.009204781614243984,-0.019110850989818573,-0.008608992211520672,0.023796480149030685,-0.008568697609007359,0.013556668534874916,0.032747428864240646,0.022412044927477837,-0.004021893721073866,-0.018435724079608917,-0.007298748474568129,0.01182642299681902,-0.03138364851474762,-0.020330391824245453,-0.02808234840631485,-0.0016250452026724815,-0.006072956137359142,-0.0043413289822638035,0.0031961475033313036,0.0120853865519166,-0.02883828990161419,-0.0023653858806937933,-0.016405632719397545,-0.022961566224694252,-0.021825609728693962,-0.003838689299300313,-0.008766685612499714,-0.01992211304605007,-0.019173234701156616,0.0032350560650229454,0.03022562898695469,-0.023571617901325226,0.016453513875603676,-0.024754853919148445,0.04813101887702942,0.019624611362814903,0.011968012899160385,0.01805366575717926,-0.02280804142355919,0.009101364761590958,0.004021510947495699,0.009646023623645306,0.022196853533387184,0.025703178718686104,0.02390104904770851,-0.01991727016866207,-0.03400260582566261,-0.013097289018332958,0.018522625789046288,0.027334218844771385,0.012434056960046291,0.0018786779837682843,-0.017121009528636932,-0.030837850645184517,-0.00010515765461605042,0.019206887111067772,0.030355112627148628,0.02503756806254387,-0.0003911395906470716,0.03654240444302559,0.030645238235592842,-0.005739910528063774,0.01592227816581726,-0.0009316208306699991,0.017040565609931946,0.020534968003630638,-0.01779714971780777,-0.018721358850598335,0.040894098579883575,0.037681933492422104,-0.038732726126909256,-0.03346795216202736,-0.031192446127533913,0.0073769837617874146,0.03966331109404564,0.016382308676838875,0.017590120434761047,-0.04134589433670044,-0.008357821963727474,0.006292484235018492,-0.013104007579386234,-0.046694304794073105,0.009928927756845951,0.04322648420929909,-0.036467354744672775,-0.019308295100927353,0.005384561140090227,0.027277933433651924,-0.015643469989299774,0.02387237176299095,0.0013312936061993241,0.028726711869239807,-0.12221529334783554,0.03931988775730133,-0.03617757186293602,-0.01778222620487213,0.030010171234607697,-0.0229977797716856,0.0008374480530619621,-0.04199983552098274,-0.028201261535286903,-0.043104205280542374,0.010266987606883049,-0.02278107777237892,0.009781980887055397,-0.013845641165971756,0.0046279714442789555,0.0075796013697981834,-0.05152299627661705,0.03348664939403534,0.02564365789294243,0.021851956844329834,-0.0004322640015743673,-0.044300179928541183,-0.049181900918483734,-0.06283009052276611,0.04054051637649536,0.019828438758850098,0.01950772851705551,0.02331879548728466,0.003380395006388426,0.014070813544094563,0.007086792029440403,0.027269698679447174,-0.016542484983801842,0.05678520351648331,-0.02455795370042324,0.017840297892689705,-0.020549027249217033,-0.05216088518500328,0.003090717364102602,0.019944287836551666,0.016306038945913315,0.0058900644071400166,-0.03472907096147537,-0.006735116243362427,-0.00020091621263418347,-0.007606811355799437,-0.02923416905105114,-0.021034112200140953,-0.005322249140590429,-0.022775357589125633,-0.11600343137979507,-0.003691177349537611,0.017574410885572433,-0.01572846993803978,0.03331892564892769,0.010079997591674328,0.00545188644900918,-0.02695159986615181,0.009284348227083683,0.0023832079023122787,0.03812853619456291,0.033263061195611954,-0.0316108837723732,-0.02167479507625103,-0.005792958661913872,-0.009471219964325428,-0.007911007851362228,-0.021214617416262627,-0.00893186591565609,-0.024598488584160805,-0.025185493752360344,-0.05806479975581169,0.018877821043133736,-0.03325820341706276,0.024735163897275925,-0.03574058786034584,0.02332429774105549,-0.032906025648117065,-0.009617438539862633,-0.01322462409734726,-0.022959137335419655,0.006508047692477703,-0.01700649969279766,0.046742212027311325,0.06361138075590134,-0.012774975039064884,0.011028526350855827,-0.010578667744994164,-0.008136509917676449,-0.021578073501586914,-0.057006631046533585,0.028725970536470413,0.008299410343170166,0.03648380935192108,-0.003221126040443778,-0.004611785989254713,0.004369786009192467,-0.008196357637643814,0.02522795833647251,0.0031219187658280134,0.015757210552692413,0.04331245645880699,-0.008775811642408371,0.02066771499812603,0.013694362714886665,-0.011680196970701218,-0.03845961019396782,0.014854860492050648,-0.04730323329567909,-0.007218668702989817,0.03467051684856415,-0.045240115374326706,-0.03530431166291237,0.0210846159607172,-0.040063243359327316,0.013297101482748985,-0.005969655234366655,0.014880681410431862,-0.01117050088942051,-0.01266578771173954,0.049264512956142426,0.0712880939245224,-0.005412250757217407,-0.06003661826252937,0.01156352087855339,-0.021039143204689026,0.028230633586645126,-0.01922007091343403,0.02201872691512108,-0.023628203198313713,0.04119754582643509,-0.011927466839551926,-0.033702727407217026,-0.016736581921577454,-0.013574679382145405,-0.0077801235020160675,-0.007678180001676083,0.07429386675357819,-0.015552791766822338,-0.04943079873919487,0.010527782142162323,0.018403533846139908,0.01881292462348938,-0.04313597455620766,-0.007248105946928263,-0.012070496566593647,-0.018353816121816635,-0.03208611160516739,0.020918015390634537,-0.019049685448408127,-0.013267694041132927,0.003793910378590226,0.006047890521585941,0.0357498973608017,-0.00048471163609065115,-0.027697477489709854,-0.0002736981841735542,-0.056054770946502686,-0.016178462654352188,0.07239934056997299,0.02337648533284664,0.022829724475741386,-0.0036007522139698267,-0.05222674086689949,-0.022972578182816505,-0.009100416675209999,-0.03477231785655022,-0.0499555878341198,0.036074329167604446,0.005402309820055962,-0.0042657735757529736,0.04939860850572586,-0.007793704513460398,0.04304509237408638,0.04025240242481232,-0.03233296796679497,0.017553461715579033,0.01140488963574171,0.05401449277997017,0.03699423372745514,-0.02138967253267765,-0.051280274987220764,0.03263328969478607,-0.02441859059035778,0.031599078327417374,0.013850332237780094,0.025054173544049263,0.02082470990717411,-0.017403818666934967,0.019885631278157234,-0.019423436373472214,0.023424915969371796,0.0030631558038294315,0.02115892432630062,0.009013589471578598,-0.029883215203881264,0.0169703159481287,-0.013348033651709557,-0.02378097176551819,0.003596559865400195,-0.03699195384979248,-0.04006044566631317,-0.02619028091430664,-0.005514522083103657,-0.0069120959378778934,0.030438218265771866,-0.018290214240550995,-0.003731186967343092,0.008942064829170704,0.028057413175702095,-0.0013034844305366278,0.015790630131959915,0.011138671077787876,0.06753863394260406,0.013579258695244789,0.0010867350501939654,0.010699487291276455,-0.007205797825008631,0.04919680580496788,0.006614267826080322,0.027825482189655304,0.04467447102069855,0.002581266686320305,-0.021791066974401474,0.007167151663452387,-0.0384659469127655,0.011173360049724579,0.026820199564099312,-0.025325093418359756,-0.02892623469233513,0.0029718256555497646,0.004355597775429487,-0.00938609428703785,0.03459889441728592,0.03398241102695465,0.02417929284274578,0.003253236645832658,0.06707204133272171,-0.019063975661993027,0.023989656940102577,-0.010790147818624973,-0.015074674971401691,0.001216877717524767,0.02047177217900753]],"47b52ef96a920ab33159b46456c1ee60":[1.0000000695620588,[-0.018290529027581215,-0.039770547300577164,-0.0480906218290329,0.04263780638575554,-0.0007627680897712708,-0.014621218666434288,-0.008083201013505459,0.0130976103246212,0.0073521677404642105,0.018050484359264374,-0.03863569721579552,0.01889304257929325,0.032177362591028214,0.022647911682724953,-0.0004803621268365532,-0.02404811605811119,0.004275296349078417,-0.020649638026952744,0.046537578105926514,-0.007996965199708939,-0.040574848651885986,0.01978948339819908,0.010115410201251507,0.0323859378695488,0.003633759217336774,0.011963066644966602,0.005932466592639685,-0.012426949106156826,-0.026594113558530807,0.028666717931628227,-0.019161075353622437,-0.017869090661406517,0.0023499736562371254,-0.034370001405477524,0.023845676332712173,-0.016739746555685997,-0.041013602167367935,0.008662285283207893,-0.011257519945502281,0.02274942956864834,0.006215881556272507,-0.0034076066222041845,-0.02483580820262432,-0.03121969848871231,0.015536528080701828,-0.017281632870435715,0.003236112417653203,-0.04007865488529205,-0.00565476855263114,-0.0594109408557415,-0.02572103962302208,-0.027216339483857155,0.08111221343278885,-0.04263026639819145,0.016469843685626984,0.031866516917943954,-0.017186477780342102,-0.03600326552987099,-0.030181393027305603,-0.02235015295445919,0.01666155830025673,0.024377454072237015,-0.013853546231985092,0.018866539001464844,0.01823846995830536,0.04279817268252373,-0.0061828033067286015,0.011901597492396832,-0.014455645345151424,-0.0405314564704895,-0.022016456350684166,0.0429968424141407,-0.020176073536276817,-0.01130411121994257,-0.056326933205127716,0.029427239671349525,0.012243106961250305,-0.022410573437809944,-0.020010674372315407,0.010989757254719734,-0.015159173868596554,-0.031704455614089966,-0.0042944662272930145,-0.020764674991369247,0.013416299596428871,0.030790934339165688,0.0054560997523367405,0.024705998599529266,-0.02797473967075348,-0.031653858721256256,0.009622296318411827,0.030204832553863525,-0.014675796963274479,-0.019359873607754707,-0.03584503009915352,0.01147032342851162,-0.005650513805449009,0.011454039253294468,0.013651514425873756,0.0181666761636734,0.021381178870797157,0.028495829552412033,-0.02810593694448471,-0.0016556649934500456,-0.00292214541696012,0.048843562602996826,0.028298892080783844,-0.03387736156582832,0.004663003608584404,-0.03427281603217125,-0.001193883828818798,-0.01438121311366558,0.010736784897744656,0.04040518403053284,-0.004604458808898926,0.006706493441015482,-0.06877307593822479,-0.03693051636219025,-0.010512208566069603,-0.017705153673887253,0.05829838663339615,0.05634535104036331,0.01986006461083889,-0.03456879034638405,0.0018924447940662503,-0.04498501494526863,-0.02528098225593567,0.024904128164052963,0.019385283812880516,0.05005974695086479,-0.02127794735133648,-0.007896926254034042,-0.014644858427345753,0.027065660804510117,-0.06985917687416077,0.007634955924004316,0.0066447388380765915,0.021962355822324753,-0.005455309059470892,-0.02480502612888813,0.022808490321040154,0.043327365070581436,0.006195222493261099,-0.03867238014936447,0.017180893570184708,-0.023117635399103165,0.044153936207294464,0.062256839126348495,0.012361186556518078,0.0027271793223917484,-0.019738487899303436,0.02312929928302765,0.01966186985373497,-0.010597886517643929,0.011323203332722187,-0.0012443539453670382,-0.006687369663268328,0.0041632442735135555,-0.04128305986523628,0.061138443648815155,0.014627832919359207,0.05103132501244545,-0.058602262288331985,0.009790459647774696,0.04827314242720604,0.046938907355070114,0.009380210191011429,0.011502985842525959,-0.024091390892863274,-0.032118845731019974,0.0034563688095659018,-0.013103527948260307,0.002155248075723648,-0.0037708135787397623,0.02446076273918152,0.039559442549943924,0.05407640337944031,0.018173210322856903,-0.028135670349001884,-0.013967214152216911,-0.03653340041637421,0.016749998554587364,0.022112296894192696,0.016862787306308746,-0.002100801793858409,0.03299231082201004,-0.014321865513920784,-0.018366897478699684,-0.011283854022622108,0.05586928874254227,-0.012651361525058746,-0.013920404016971588,-0.0040718126110732555,0.00009429625060874969,-0.011396894231438637,-0.00781898945569992,-0.014828341081738472,0.00930806528776884,0.0033665706869214773,-0.025860171765089035,0.015252928249537945,-0.004652522969990969,0.004623762797564268,-0.000047540444938931614,0.001303339609876275,0.006507825572043657,-0.0377185232937336,-0.07799692451953888,0.020310329273343086,-0.012288791127502918,0.02267075888812542,0.013158083893358707,-0.0074630663730204105,0.023138761520385742,-0.04483211040496826,-0.008720708079636097,-0.03234035521745682,-0.007787082809954882,-0.0423092246055603,-0.028761347755789757,-0.028184792026877403,0.00913515966385603,0.031252454966306686,0.02792336978018284,0.05002489313483238,-0.02438466250896454,0.04839127138257027,0.03528323397040367,-0.0068281046114861965,-0.03443636745214462,-0.01898879185318947,0.0006897909916006029,0.014067113399505615,0.00446917163208127,0.014550684951245785,0.010783313773572445,-0.02061692252755165,0.046646203845739365,0.07120697945356369,0.0038557746447622776,-0.03137514367699623,0.009920433163642883,0.01413371879607439,-0.007707552518695593,-0.019916104152798653,0.022781291976571083,-0.006686254404485226,-0.0175932664424181,0.0046167937107384205,0.034015923738479614,-0.01901334710419178,0.02530953288078308,0.008211438544094563,0.009328479878604412,0.032860830426216125,0.0058234385214746,-0.002822729991748929,-0.008962109684944153,-0.028207380324602127,-0.06341236084699631,0.0010123861720785499,0.018637411296367645,0.025117667391896248,0.009573687799274921,0.012680872343480587,-0.029644031077623367,-0.026211993768811226,-0.01522250846028328,-0.015545578673481941,0.0015826683957129717,0.00793794821947813,0.00011542396532604471,0.03859472647309303,0.03850249573588371,-0.013760987669229507,0.04245077073574066,-0.012822534888982773,-0.020083433017134666,0.07697268575429916,0.03746428340673447,0.0025227158330380917,0.04149774834513664,0.004435149021446705,0.036374062299728394,0.028634676709771156,0.00490419939160347,-0.0295119509100914,-0.03289603814482689,0.02411501109600067,-0.02061397396028042,-0.005571228917688131,-0.022582100704312325,0.07017549127340317,0.008508455008268356,-0.018654318526387215,-0.0018702717497944832,-0.008462417870759964,-0.16526536643505096,-0.0513974167406559,0.019887859001755714,-0.03655531257390976,0.017841940745711327,-0.008781718090176582,-0.044380009174346924,0.006667729467153549,-0.03897864744067192,-0.01622225157916546,-0.023806245997548103,-0.05599657818675041,-0.03521580249071121,-0.03452568128705025,0.05683077871799469,-0.05154949054121971,-0.0008820534567348659,-0.011022954247891903,0.007808184716850519,-0.011312907561659813,-0.0171199943870306,-0.04852982237935066,0.06640686839818954,-0.020330186933279037,-0.046234723180532455,-0.01093033142387867,0.03060472384095192,0.03348327428102493,-0.0361228808760643,-0.026759376749396324,0.027645841240882874,0.028418175876140594,-0.0016882308991625905,0.018764853477478027,0.02181319333612919,-0.007032458670437336,0.0055558523163199425,-0.038770269602537155,0.05446186289191246,0.00804807897657156,0.049910545349121094,0.021574433892965317,-0.024743424728512764,0.0540715754032135,-0.004224780481308699,-0.02524479292333126,0.03518228977918625,0.024309596046805382,-0.011686934158205986,0.004025548696517944,-0.04229164496064186,-0.0063734655268490314,-0.029166512191295624,-0.025909220799803734,-0.03452562913298607,0.010704055428504944,-0.006815030705183744,0.021221695467829704,-0.05626973882317543,0.010815796442329884,0.026272369548678398,-0.010055015794932842,0.004163892474025488,-0.0011185468174517155,-0.031228570267558098,-0.051771413534879684,0.017684156075119972,-0.04026547074317932,-0.044554613530635834,-0.03531497344374657,0.04132426902651787,0.02177230268716812,-0.022758377715945244,-0.0047954386100173,-0.05682587996125221,-0.021176669746637344,-0.03359072282910347,0.01155430544167757,0.023497028276324272,-0.10619398951530457,0.019777335226535797,-0.007195367012172937,-0.007267675828188658,0.022288786247372627,0.007346821948885918,0.010405768640339375,-0.027442460879683495,0.007354816887527704,-0.012512813322246075,0.24952386319637299,0.0006334633799269795,-0.03374594449996948,-0.018066035583615303,0.0022422231268137693,-0.005677185021340847,0.030639968812465668,-0.00607100548222661,-0.0021378465462476015,-0.021402889862656593,-0.018082549795508385,0.008372342213988304,0.026790985837578773,0.006942167412489653,-0.018110446631908417,0.028208961710333824,-0.024746637791395187,0.04531141370534897,0.07591582089662552,0.004559638444334269,0.032873451709747314,0.030124902725219727,0.05279729515314102,0.026268182322382927,-0.030306313186883926,-0.06093478575348854,-0.01827653869986534,-0.005814751610159874,-0.042976781725883484,-0.000445596786448732,-0.024698901921510696,0.014517354778945446,0.021570894867181778,-0.0350637324154377,-0.0236239992082119,-0.027045289054512978,0.04358106106519699,0.018500661477446556,0.05140451714396477,0.04184499755501747,-0.008592639118432999,-0.01603531464934349,-0.027156971395015717,-0.019216163083910942,0.013396747410297394,-0.0022580097429454327,0.020484212785959244,-0.014381350949406624,0.032243113964796066,0.004397856071591377,-0.04334574192762375,0.003879501251503825,-0.03302284702658653,-0.00914523471146822,-0.056040916591882706,-0.022445708513259888,-0.04815126210451126,-0.034066133201122284,0.0019909171387553215,0.04697665572166443,0.03161102905869484,0.0073694451712071896,-0.031284406781196594,0.006533776875585318,-0.004808382131159306,-0.00434943987056613,-0.06706590205430984,-0.050605323165655136,0.05472354218363762,0.013218441978096962,0.022425349801778793,-0.005060591734945774,0.0015349216992035508,-0.006273559294641018,0.03684135153889656,-0.00604703463613987,0.006800381932407618,0.030012888833880424,-0.03639997914433479,-0.04636351019144058,-0.046179868280887604,-0.019199984148144722,0.0027910771314054728,0.07943573594093323,-0.009899161756038666,0.011281277053058147,-0.0378345288336277,0.04281877726316452,-0.038778893649578094,-0.025833802297711372,-0.0527084656059742,-0.02288181148469448,-0.03584110364317894,0.022626005113124847,-0.01690160296857357,0.028477812185883522,-0.009482545778155327,-0.026768196374177933,-0.032778192311525345,0.0044271633960306644,-0.016678016632795334,-0.03453347831964493,0.009984361939132214,0.056670866906642914,0.0611337274312973,0.008604241535067558,-0.014603156596422195,0.04251641780138016,0.027436116710305214,0.016990771517157555,-0.06934259831905365,0.043608155101537704,-0.003047858364880085,-0.025239532813429832,0.047779861837625504,0.044331371784210205,-0.018070168793201447,0.04236774891614914,-0.04176068678498268,0.06182871013879776,-0.004976546857506037,0.027356425300240517,0.04722622036933899,-0.010506385937333107,0.006094059906899929,-0.015008614398539066,0.02023555524647236,-0.0308493934571743,-0.012215443886816502,0.048014216125011444,0.02226523496210575,-0.040147557854652405,-0.016963668167591095,0.014432823285460472,0.00931644905358553,-0.02024044468998909,0.043814241886138916,0.025528669357299805,-0.012442061677575111,-0.032618407160043716,-0.05349631980061531,-0.03753111883997917,-0.03336998447775841,-0.004310847260057926,-0.025369027629494667,-0.03723221272230148,0.04694204032421112,-0.02861190214753151,-0.044565439224243164,0.022173147648572922,0.005815993063151836,0.02687288261950016,0.00585723202675581,-0.07324697822332382,-0.04104429855942726,-0.037722524255514145,-0.026329170912504196,0.017774246633052826,-0.01894206553697586,0.0002707220846787095,-0.022992391139268875,0.05728590488433838,-0.030839791521430016,0.02113511972129345,0.006307068280875683,0.010339053347706795,0.0012390449410304427,0.027228673920035362,0.02617669105529785,-0.04483528807759285,0.0397910475730896,-0.04217223823070526,-0.04769304767251015,0.030947847291827202,0.0074605573900043964,-0.05513809248805046,-0.10650421679019928,-0.02239225059747696,0.011103322729468346,-0.034136995673179626,0.020628763362765312,0.05227753147482872,-0.028770728036761284,0.05078372731804848,0.04010343551635742,0.04701117426156998,-0.016857966780662537,-0.01989957131445408,0.07225579768419266,-0.004170181695371866,-0.008838782086968422,0.131070077419281,0.02297261357307434,-0.007566788699477911,0.02475064806640148,0.0012851818464696407,0.06250590085983276,0.01509090606123209,-0.0011477970983833075,-0.031748589128255844,0.06956935673952103,0.003454134101048112,0.0011634886031970382,0.018965912982821465,-0.026965904980897903,-0.024992387741804123,0.009958496317267418,0.014520609751343727,-0.01899760589003563,0.024959620088338852,-0.0003116716106887907,-0.005197044927626848,-0.04772152751684189,0.0022396815475076437,0.0037841089069843292,-0.019325755536556244,0.05126195773482323,0.04520426318049431,-0.01392388716340065,-0.016506405547261238,0.04441073536872864,-0.048655472695827484,0.02755344845354557,0.0012317989021539688,-0.02280842699110508,-0.0036099578719586134,0.0010851925471797585,0.007322586607187986,0.011476276442408562,-0.012322516180574894,-0.0012019387213513255,-0.010096997953951359,0.015946712344884872,-0.016751380637288094,0.016557402908802032,-0.04511690512299538,-0.00664755841717124,0.03632202371954918,0.020591814070940018,-0.01799532026052475,0.003057436551898718,0.06302719563245773,0.05736884847283363,0.02720167674124241,-0.004317396320402622,0.07302897423505783,-0.0031067871022969484,-0.00928823184221983,0.002291613956913352,0.02733832597732544,-0.03466617688536644,-0.0082543408498168,-0.007903307676315308,-0.0012511633103713393,0.04026992619037628,0.020297279581427574,-0.01216262299567461,0.012274447828531265,0.008437938056886196,-0.06538663804531097,-0.03260282799601555,0.02624507248401642,0.008345351554453373,-0.020231876522302628,-0.03842616081237793,-0.025206785649061203,0.010680686682462692,-0.062598817050457,-0.020492181181907654,0.005384115967899561,-0.03782680630683899,-0.027781499549746513,-0.001114399405196309,-0.06508854031562805,0.004397843033075333,-0.024145709350705147,0.004394382704049349,-0.028568239882588387,-0.02033594623208046,0.0198059044778347,0.010431231930851936,-0.007751666009426117,0.056479137390851974,0.012599379755556583,0.021516641601920128,0.02570382133126259,-0.0167493037879467,0.02022254280745983,0.013896054588258266,-0.04734598845243454,-0.026257740333676338,0.0017562862485647202,-0.028650648891925812,0.030706793069839478,0.004943803418427706,-0.0030566139612346888,-0.04070292040705681,-0.002848805394023657,0.0031909544486552477,0.00823815818876028,-0.04737355560064316,0.019081490114331245,-0.014709985814988613,0.022533347830176353,0.00544008007273078,-0.001378453802317381,0.0016852635890245438,-0.06117180734872818,0.026027614250779152,0.046173565089702606,0.021929120644927025,-0.0324627049267292,-0.011157245375216007,0.05874013900756836,-0.008636183105409145,-0.026399781927466393,0.0632973462343216,-0.009377311915159225,-0.005463878158479929,-0.012528624385595322,-0.013794180937111378,-0.015560338273644447,-0.0335637629032135,0.017056073993444443,0.008149821311235428,-0.011192983016371727,-0.031463440507650375,0.04983906075358391,-0.05880929157137871,-0.016432510688900948,-0.02649129554629326,-0.04254285618662834,-0.00392206059768796,-0.018319277092814445,0.0019144080579280853,-0.02505899779498577,-0.008870777674019337,-0.057362210005521774,0.04945998638868332,0.013559762388467789,-0.03252608701586723,-0.036436036229133606,0.062134999781847,-0.03477364405989647,-0.0035852391738444567,-0.03948082774877548,-0.01189795695245266,-0.007402096409350634,-0.0037366519682109356,0.008630757220089436,0.009812568314373493,0.013024446554481983,-0.014023830182850361,-0.03447297587990761,0.0298763420432806,-0.00016283472359646112,-0.018702203407883644,0.021033557131886482,0.05090424418449402,-0.007846569642424583,-0.014491649344563484,0.0006904369220137596,0.014270144514739513,-0.0015353107592090964,0.007194903679192066,0.020883727818727493,0.07771372050046921,-0.0007833359995856881,-0.009006734937429428,-0.023697856813669205,-0.046101462095975876,0.062166277319192886,-0.008880993351340294,-0.025828011333942413,-0.01523449644446373,0.02320689521729946,-0.0078967260196805,-0.013081945478916168,0.014675512909889221,0.03224249184131622,-0.0050446451641619205,-0.008443744853138924,-0.015137904323637486,-0.031270869076251984,0.018487630411982536,0.032406698912382126,-0.00889547262340784,-0.014082388952374458,0.01610463485121727,0.042827341705560684,-0.026492472738027573,-0.018513677641749382,-0.03165428340435028,-0.021080441772937775,-0.13675430417060852,0.020474709570407867,-0.020850805565714836,-0.01494124811142683,-0.010047640651464462,0.009405172429978848,-0.01484414841979742,-0.05599214881658554,-0.026523886248469353,-0.042140111327171326,-0.027375388890504837,-0.029128264635801315,-0.0031722101848572493,-0.05259489640593529,0.036992307752370834,0.032321177423000336,-0.021254435181617737,-0.013599572703242302,-0.012175094336271286,0.02683785744011402,-0.0033582940232008696,0.004412067122757435,0.007918747141957283,0.0037223713006824255,0.0022715632803738117,-0.01922769472002983,0.06073640659451485,0.02220701053738594,-0.011833165772259235,-0.059480488300323486,-0.005996250081807375,-0.027479318901896477,0.0042460886761546135,0.02300553396344185,0.003396911546587944,0.025414271280169487,0.016444016247987747,-0.0003431249351706356,-0.00014928594464436173,0.0188779067248106,-0.02659820020198822,0.02493109554052353,-0.011446325108408928,0.019407100975513458,0.03575396165251732,0.04223334789276123,-0.0050934720784425735,-0.030015243217349052,-0.04216689616441727,0.013822990469634533,-0.00412461394444108,-0.010550543665885925,-0.03642423450946808,-0.016408924013376236,0.003712391946464777,-0.032427869737148285,-0.03290507197380066,-0.005659124813973904,-0.0008099617552943528,0.005190126597881317,-0.0312751941382885,0.014014851301908493,-0.0487133227288723,-0.01419698167592287,-0.02256942354142666,-0.004266552161425352,-0.03945040702819824,0.027898304164409637,0.020523199811577797,-0.03319574519991875,-0.023255521431565285,0.05130716785788536,0.007178418338298798,-0.029841739684343338,0.004480835050344467,0.0053264545276761055,0.0167082529515028,-0.02178615890443325,-0.010982613079249859,0.0026686678174883127,-0.043999895453453064,-0.04023505747318268,-0.023920241743326187,0.06884527951478958,0.03582211583852768,0.016942927613854408,-0.0017669523367658257,0.027595311403274536,-0.020947517827153206,0.04838580638170242,-0.048880185931921005,0.006024362053722143,-0.0009210318676196039,0.006312393583357334,-0.017980949953198433,0.029898827895522118,-0.041195716708898544,-0.025067545473575592,-0.0003911851963493973,-0.019175654277205467,-0.011346133425831795,-0.01545646134763956,0.008831693790853024,0.0494505949318409,0.01567172259092331,0.025343138724565506,0.046453967690467834,-0.017191864550113678,0.039783548563718796,-0.002336305333301425,0.02202618680894375,0.017619820311665535,-0.009327144362032413,0.02030540257692337,0.02490670420229435,-0.015423019416630268,-0.03679366782307625,0.01821095496416092,-0.0043291617184877396,0.013015303760766983,0.015228538773953915,0.006141800433397293,-0.05903094634413719,0.005864500533789396,0.026561487466096878,-0.008424252271652222,-0.006760402116924524,0.0008972299401648343,0.018514515832066536,0.027998950332403183,0.01054356899112463,-0.02245749719440937,-0.015334593132138252,0.008557617664337158,0.03400057554244995,-0.022457407787442207,-0.03577636554837227,0.05569738894701004,-0.0237225703895092,0.011033487506210804,-0.0011135911336168647,-0.04614292085170746,-0.009261926636099815,-0.021832594648003578,0.022791320458054543,-0.0062358626164495945,0.00757234450429678,-0.003201128914952278,-0.02079455554485321,-0.0012633171863853931,-0.0037125437520444393,0.020621836185455322,-0.040151532739400864,0.004553587641566992,-0.059539418667554855,0.040060482919216156,-0.022183610126376152,-0.008217830210924149,-0.02671116031706333,0.02277565374970436,-0.02731243334710598,-0.012516317889094353,-0.011721117421984673,-0.014298643916845322,-0.007535403594374657,0.022791234776377678,-0.02479305863380432,0.012638716027140617,-0.026732102036476135,0.0015087916981428862,0.01025677751749754,-0.002937974873930216,-0.029592076316475868,0.044149886816740036,0.013663931749761105,-0.02381877973675728,0.012248776853084564,-0.07065331190824509,0.04166224226355553,-0.020250054076313972,0.03345467522740364,0.0033139169681817293,0.05011829361319542,0.001890830579213798,0.028714483603835106,0.067935511469841,0.00690859742462635,0.05393626540899277,0.03066902421414852,0.04217930883169174,0.060737449675798416,0.024698978289961815,0.016476621851325035,-0.03086126036942005,0.0640592873096466,-0.026228422299027443,0.01784932054579258,0.023577619343996048,-0.0001395523431710899,0.057520411908626556,-0.017637748271226883,0.05307817459106445,-0.02255040593445301,-0.0008992294897325337,0.0049059116281569,-0.03253394737839699,0.007739828899502754,0.003260544966906309,-0.018038161098957062,0.013037294149398804,-0.01770664006471634,-0.03661855310201645,-0.011339565739035606,0.029363827779889107,0.012461686506867409,-0.016520235687494278,0.047712069004774094,0.00466438801959157,0.024010274559259415,-0.010896468535065651,0.04897753521800041,0.007646389305591583,0.015348655171692371,-0.02514624409377575,-0.055927492678165436,-0.059820618480443954,0.006324394140392542,-0.016655266284942627,-0.0024296727497130632,-0.037797704339027405,0.033708006143569946,0.027894074097275734,-0.010168937034904957,0.011150496080517769,-0.02906184270977974,-0.025571715086698532,0.0038943039253354073,0.01644890569150448,-0.017666880041360855,0.03667096048593521,0.0446942038834095,0.009748926386237144,0.017206503078341484,-0.015220889821648598]],"7afb3aa06c849214862fc3641959d7eb":[1.0000001642815202,[0.013360494747757912,0.022019196301698685,-0.03295682743191719,0.018305735662579536,0.01036821212619543,-0.03894911706447601,0.03969797492027283,0.07945969700813293,-0.0184786356985569,-0.0014523558784276247,-0.004514158703386784,0.011149134486913681,-0.01415165513753891,0.03283408284187317,-0.016793079674243927,-0.013988463208079338,-0.0030623492784798145,0.0005091038765385747,-0.022301413118839264,-0.0015441877767443657,-0.04275047779083252,0.006418291013687849,0.014494472183287144,-0.018540075048804283,-0.013228627853095531,0.0561927855014801,-0.014696563594043255,-0.04881345480680466,-0.00912048015743494,0.015762927010655403,0.04645876958966255,-0.012107868678867817,-0.0035203127190470695,-0.0344674177467823,-0.00561324181035161,-0.05973709002137184,-0.004241269081830978,-0.029645172879099846,-0.09348907321691513,-0.0056344387121498585,0.012160444632172585,-0.015284663997590542,-0.029153015464544296,0.00785713642835617,-0.0041395267471671104,-0.001818489865399897,-0.013255753554403782,-0.06636692583560944,-0.015430983155965805,-0.014309149235486984,-0.04812568053603172,-0.011129716411232948,-0.005342203192412853,-0.03054908849298954,-0.004221710842102766,0.04710880666971207,0.009101681411266327,-0.003815680043771863,0.012148342095315456,-0.0038220819551497698,0.010901089757680893,-0.011470427736639977,0.00048160768346861005,-0.008479944430291653,-0.030532067641615868,0.0163674745708704,0.009061009623110294,0.03847859054803848,0.024350890889763832,-0.048917364329099655,0.006457249168306589,0.028750166296958923,-0.04082701355218887,-0.061281587928533554,0.005904319230467081,-0.006950713694095612,0.014057628810405731,0.008445560932159424,0.004316053818911314,-0.0441676564514637,0.10556276887655258,-0.04404282942414284,0.020582735538482666,-0.017724115401506424,-0.03648543730378151,-0.032347843050956726,-0.02965417318046093,0.044406089931726456,0.019681284204125404,0.015432720072567463,0.016943322494626045,0.04246243089437485,-0.00006643021333729848,-0.05955400690436363,-0.0017347047105431557,-0.007797400001436472,-0.002686740830540657,-0.018179265782237053,0.04776851832866669,-0.00552833266556263,-0.03459819778800011,0.0033736524637788534,0.005662169773131609,0.031216265633702278,0.02969265729188919,0.0005511656636372209,-0.004990919027477503,0.022548047825694084,-0.027663879096508026,0.013967928476631641,-0.029323091730475426,-0.018887657672166824,-0.019542204216122627,0.014643775299191475,-0.001734908320941031,-0.01083146408200264,-0.02437463402748108,-0.011361668817698956,0.017564885318279266,-0.0011511240154504776,0.009818664751946926,0.06494612991809845,0.016963517293334007,-0.007365647237747908,0.006018891464918852,0.0087248794734478,-0.024111544713377953,0.052740879356861115,-0.06302579492330551,0.005561976693570614,0.004612338729202747,0.021833255887031555,0.051887646317481995,-0.027073882520198822,-0.031895339488983154,-0.010302042588591576,0.037883058190345764,0.07575204968452454,0.054261185228824615,-0.041823092848062515,0.012028736062347889,0.014493287540972233,-0.025535043329000473,-0.010159322991967201,0.05983693152666092,0.005093720741569996,0.011021253652870655,0.013023842126131058,-0.03330221772193909,0.04138847067952156,-0.026844331994652748,-0.0420539528131485,-0.001546091167256236,-0.009326235391199589,0.01398703083395958,0.004823192022740841,0.022242143750190735,-0.005542863626033068,0.007689555175602436,-0.028195209801197052,-0.004111269023269415,-0.013711902312934399,0.004028392489999533,0.07197459787130356,0.026300830766558647,0.011996723711490631,0.012186185456812382,0.007571374531835318,-0.007567166816443205,-0.017701605334877968,0.004119563847780228,-0.0712462067604065,0.021428627893328667,-0.0022013818379491568,0.02909257635474205,0.06079840660095215,0.052208300679922104,0.02400030754506588,0.007004859857261181,-0.031031286343932152,-0.016411133110523224,0.0053911032155156136,0.03581662476062775,-0.04632233455777168,0.02722672000527382,-0.0061049372889101505,0.0014689065283164382,-0.003684691619127989,0.00399023899808526,0.06838440895080566,-0.006662953179329634,-0.032652925699949265,0.05338578671216965,0.009811321273446083,-0.005555284209549427,-0.02080361917614937,-0.018820853903889656,0.004073887597769499,0.055571772158145905,-0.04982694983482361,-0.02456831932067871,0.018444446846842766,-0.034613847732543945,0.03651409596204758,-0.0066350530833005905,0.007918722927570343,-0.013871771283447742,-0.05887287110090256,0.01532256044447422,0.019839942455291748,0.030382119119167328,0.006074942648410797,-0.020117510110139847,0.01480620726943016,-0.012726954184472561,-0.015577523969113827,0.007116368040442467,0.007781307678669691,0.024102116003632545,0.005310567561537027,-0.002288837917149067,-0.022876575589179993,-0.00819796696305275,-0.018323931843042374,0.03402557224035263,0.027031123638153076,0.02983657829463482,0.04740862548351288,0.020585937425494194,0.011646329425275326,-0.0552763007581234,0.09010065346956253,-0.027371760457754135,-0.01991250179708004,-0.0032135657966136932,0.019562089815735817,-0.0409964993596077,0.00016685080481693149,0.039275236427783966,0.028844699263572693,-0.01583690196275711,-0.05821261927485466,-0.009726576507091522,-0.041897132992744446,-0.05412733182311058,0.026373811066150665,0.005452561192214489,0.012871143408119678,-0.023028986528515816,-0.0046960762701928616,-0.04846534878015518,-0.021208785474300385,0.0086040198802948,-0.035212192684412,-0.011931898072361946,-0.0822836235165596,-0.023564772680401802,-0.017720302566885948,0.030899567529559135,0.02211015112698078,0.028297627344727516,-0.01894981414079666,-0.00960569828748703,0.03675132989883423,-0.032628800719976425,-0.005555444397032261,-0.01849726401269436,-0.04122234135866165,0.004649471957236528,0.06232631206512451,-0.026855893433094025,0.01698935590684414,-0.033101726323366165,0.006979131605476141,-0.01633458025753498,-0.012547614052891731,0.013052643276751041,-0.031924087554216385,0.037142373621463776,-0.008887454867362976,0.0020855888724327087,-0.008187675848603249,0.000051395883929217234,-0.026054207235574722,-0.008687186054885387,0.04271961748600006,-0.01874631643295288,-0.0048331571742892265,0.012990499846637249,-0.01765010878443718,-0.006847184617072344,0.02067132480442524,0.08560849726200104,-0.01948438212275505,0.028920697048306465,0.015607742592692375,-0.022377267479896545,-0.1937442421913147,-0.017606103792786598,0.021461058408021927,-0.019784320145845413,0.0025630760937929153,-0.013122539967298508,0.007548386696726084,0.015087754465639591,-0.0018330252496525645,-0.03849522024393082,-0.03489462658762932,-0.14225928485393524,-0.01799205131828785,-0.023994600400328636,0.03463740646839142,0.04466751217842102,0.040820132941007614,0.012212834320962429,0.010372830554842949,-0.0777733325958252,0.015179489739239216,0.014554129913449287,0.03286972641944885,0.015383927151560783,0.02981877513229847,0.0006614015437662601,0.005495950113981962,0.06415039300918579,-0.024775424972176552,0.00962642952799797,-0.033583324402570724,0.015443539246916771,-0.03851737082004547,-0.03914162516593933,0.016784200444817543,0.026972031220793724,0.019741056486964226,-0.029033606871962547,0.009196694940328598,-0.0013685687445104122,0.04345094412565231,0.02290455624461174,-0.002843034453690052,-0.07343287020921707,0.03908193111419678,-0.0019424587953835726,-0.015952441841363907,0.001581574440933764,-0.01077160146087408,0.03270416706800461,-0.004723472520709038,0.018334951251745224,0.0032557405065745115,-0.016918828710913658,-0.01980503834784031,0.015092947520315647,0.012487731873989105,0.04955273121595383,0.01725989393889904,0.017598604783415794,-0.010953071527183056,-0.048721056431531906,-0.040721096098423004,-0.009619513526558876,0.013812138698995113,-0.005834251642227173,0.0017705566715449095,-0.017698127776384354,0.009791150689125061,-0.048965614289045334,0.017071828246116638,0.003585430094972253,-0.03017481602728367,-0.03139348328113556,-0.024155139923095703,0.0005923762801103294,0.0008187756175175309,-0.019588977098464966,-0.035814497619867325,-0.0739918127655983,0.014107415452599525,0.007233424577862024,-0.033834125846624374,0.013982731848955154,-0.016335485503077507,0.01881568692624569,-0.0605192705988884,-0.047088246792554855,0.011777962557971478,0.3156348168849945,-0.031703632324934006,-0.028275828808546066,0.022284431383013725,0.014570732600986958,0.02387128584086895,0.013527892529964447,0.007946892641484737,0.017720112577080727,-0.00827158335596323,-0.004806223325431347,-0.006112836301326752,-0.0036678670439869165,0.03197504207491875,-0.000111102890514303,0.0375932939350605,-0.026864968240261078,0.007150993682444096,0.0003285254933871329,-0.012748794630169868,0.022246910259127617,-0.03344794735312462,0.00889979675412178,0.01948082074522972,-0.03269263356924057,0.02291826903820038,0.017835460603237152,0.007315549533814192,-0.06359069049358368,-0.003265062812715769,-0.01380310207605362,0.011677187867462635,-0.016469744965434074,-0.04651106521487236,-0.031072676181793213,0.03080437146127224,-0.0789073035120964,-0.04226228967308998,-0.016478316858410835,0.017193982377648354,0.029462091624736786,-0.02142893709242344,-0.017399735748767853,0.001254369388334453,-0.0357995443046093,-0.03360157832503319,-0.017379550263285637,-0.02145053632557392,-0.030357370153069496,-0.0381915457546711,-0.0032250192016363144,-0.02685074880719185,-0.029750661924481392,0.02295478992164135,-0.00961159635335207,0.0028607447165995836,-0.03473195433616638,0.010689045302569866,-0.02574884332716465,0.009671802632510662,0.007052946835756302,0.01809416338801384,-0.06630656123161316,0.04252130165696144,0.04192957282066345,0.009189627133309841,-0.029272794723510742,-0.008810915052890778,0.0014841152587905526,0.0025188373401761055,0.026600567623972893,0.03272567689418793,0.02836715057492256,-0.014755810610949993,-0.017327962443232536,-0.017881393432617188,-0.011366575956344604,0.02809852920472622,-0.024588214233517647,0.03144540637731552,-0.01821950264275074,0.009189738892018795,0.019999021664261818,0.041981834918260574,0.010159123688936234,0.04038035869598389,-0.029811687767505646,0.04185252636671066,0.001513014198280871,-0.04699347913265228,-0.0021848317701369524,-0.02698986604809761,-0.013683822937309742,-0.00014791828289162368,0.05209403857588768,-0.0005831968737766147,-0.01199567411094904,-0.05562877655029297,-0.00376869086176157,-0.014169539324939251,0.035331323742866516,0.001298371935263276,0.021652061492204666,-0.012803185731172562,-0.009639227762818336,-0.011682349257171154,0.006836774293333292,-0.02197634056210518,-0.011758306995034218,-0.0013401985634118319,-0.04149572551250458,0.022871745750308037,0.0036879293620586395,-0.008841286413371563,0.03722439706325531,0.028505394235253334,0.022156868129968643,0.042452309280633926,0.015658190473914146,0.012438265606760979,-0.040908653289079666,-0.02675444260239601,0.006770004518330097,0.010347441770136356,0.007107184734195471,-0.06845949590206146,0.02585407719016075,-0.027925141155719757,-0.03168594837188721,0.02001619152724743,0.02960333414375782,0.025375161319971085,-0.01810537837445736,-0.005840050522238016,-0.01937912032008171,-0.05148840323090553,0.01973857544362545,0.0001829073007684201,0.006253642030060291,0.023910846561193466,0.032420508563518524,-0.024054527282714844,-0.0003872367669828236,0.021226834505796432,-0.033763207495212555,-0.01512454729527235,-0.0067252893932163715,-0.01710175909101963,0.010534591041505337,-0.0172625370323658,0.005239875987172127,-0.015461070463061333,0.028813429176807404,-0.018467852845788002,-0.0160223338752985,0.0003111886326223612,0.01246415451169014,0.009592480026185513,-0.03850722312927246,-0.020837286487221718,-0.02675206959247589,0.01108395867049694,0.022085757926106453,0.057214848697185516,0.027225451543927193,0.04842652007937431,0.020562658086419106,0.05155477672815323,-0.00545326666906476,-0.009386367164552212,0.022094091400504112,-0.044487353414297104,0.009814128279685974,0.022273989394307137,0.03777647390961647,-0.049099620431661606,-0.02437846176326275,0.036948055028915405,0.026992905884981155,0.022985685616731644,0.05207150802016258,0.012870566919445992,-0.021639548242092133,0.025621501728892326,-0.03666331246495247,0.017002295702695847,-0.0028840331360697746,0.004003881011158228,0.002249588258564472,-0.009517055004835129,0.02094828151166439,0.0704658105969429,-0.00764067005366087,-0.0043886881321668625,0.021701913326978683,-0.023755090311169624,-0.0017339125042781234,0.003983968868851662,-0.014409422874450684,0.002693535527214408,0.05534478649497032,0.007932710461318493,0.0045809089206159115,0.02917294017970562,0.04621150344610214,0.005981816444545984,0.04083218425512314,0.03071376495063305,0.012853975407779217,-0.04638427495956421,0.03424213081598282,0.007122312672436237,-0.012946682050824165,-0.02251976914703846,-0.013960476033389568,-0.026975411921739578,0.05995805934071541,0.0217380840331316,0.01755344122648239,-0.019685903564095497,-0.0312032550573349,-0.02216964401304722,0.008701227605342865,-0.02819293551146984,-0.019296081736683846,0.012023895047605038,-0.0019896049052476883,-0.03175528720021248,-0.022972000762820244,0.02546987682580948,-0.018223263323307037,-0.015232883393764496,0.012611991725862026,-0.028399022296071053,-0.01009459886699915,0.0019712254870682955,0.03505392372608185,0.029220448806881905,0.01547186728566885,0.03469216078519821,-0.021645639091730118,-0.024589331820607185,0.00555978761985898,0.03652301803231239,0.0254067350178957,0.008575422689318657,-0.04656056687235832,0.034826695919036865,-0.012704743072390556,0.006553529296070337,0.007597533520311117,0.003605477511882782,-0.06109398975968361,-0.030314233154058456,0.02099328301846981,0.06845865398645401,0.017405932769179344,-0.033202365040779114,-0.02428465522825718,-0.012218176387250423,-0.01792321167886257,0.004655077122151852,0.01693454012274742,-0.005782522726804018,-0.007808162365108728,0.002537952270358801,-0.020802341401576996,-0.05576685443520546,0.0006152993883006275,-0.04975594952702522,0.00431862473487854,-0.031689222902059555,-0.02033088542521,-0.052702900022268295,-0.012016186490654945,0.005182510707527399,0.01716647483408451,-0.01332168746739626,-0.013852841220796108,0.01919376663863659,-0.08606947213411331,0.004264336545020342,0.028854617848992348,-0.004689577966928482,0.010581593960523605,0.0034810977522283792,0.003945565316826105,0.00879997480660677,-0.03634541481733322,-0.006666100118309259,0.01477853674441576,-0.0017732389969751239,-0.04817197471857071,0.01957998052239418,-0.00020899632363580167,0.04082510992884636,-0.02363717555999756,0.03721362352371216,0.020723052322864532,0.008815063163638115,0.016222750768065453,0.005244689527899027,-0.0039186677895486355,-0.020095977932214737,-0.007198760751634836,0.0548902228474617,0.0018581381300464272,-0.006918525788933039,-0.0008979871636256576,-0.012954050675034523,-0.000041198851249646395,-0.01935679279267788,-0.011109390296041965,-0.006194110028445721,-0.005237802397459745,-0.03230045363306999,-0.02612297423183918,0.020086299628019333,-0.027118777856230736,-0.005258446093648672,0.02224712073802948,0.020266123116016388,-0.023413000628352165,0.03181147947907448,-0.01747697778046131,-0.02501561865210533,-0.025423694401979446,-0.024732723832130432,0.00301411678083241,-0.01169747393578291,-0.02819865010678768,-0.0032245733309537172,0.030513722449541092,-0.01267402246594429,-0.003995518200099468,-0.0005472068442031741,0.05657673627138138,-0.006922080181539059,0.01844528131186962,0.007398358546197414,-0.03346927464008331,0.024462010711431503,-0.004837495740503073,0.006737187504768372,0.0159307811409235,0.06652768701314926,0.019357861950993538,-0.024991445243358612,-0.04313735291361809,-0.016992779448628426,0.030548090115189552,0.027743911370635033,-0.02024369314312935,0.03317275643348694,-0.014406627975404263,-0.03186999261379242,-0.0005258010351099074,0.04345725104212761,0.03522282838821411,0.007020430639386177,0.014351947233080864,0.056208182126283646,0.018185460940003395,-0.0002524498850107193,0.0013033312279731035,-0.026628248393535614,0.019415048882365227,0.009300604462623596,-0.02709250897169113,0.02931567281484604,0.002718684496358037,0.039820585399866104,-0.03775089606642723,-0.027599412947893143,-0.043676670640707016,0.007406567223370075,0.02609816938638687,0.0018932190723717213,0.01112434733659029,-0.011079033836722374,-0.027862466871738434,0.00043127956450916827,0.007944151759147644,-0.05086851865053177,0.011023973114788532,0.0031579104252159595,-0.04045495763421059,-0.016597747802734375,-0.03646588698029518,0.037764307111501694,0.007398767396807671,0.025460893288254738,0.009050600230693817,0.010209182277321815,-0.10776405036449432,0.052726808935403824,-0.018800850957632065,-0.0058889868669211864,0.027126198634505272,0.0001234966330230236,-0.012738957069814205,-0.05578472092747688,-0.013579592108726501,-0.044555921107530594,0.046252764761447906,-0.013197931461036205,0.014246571809053421,-0.04211993142962456,0.001135903294198215,-0.019707128405570984,-0.023553449660539627,0.018465153872966766,0.015530451200902462,0.005649451166391373,-0.006380847655236721,-0.050715088844299316,-0.03548271954059601,-0.0680587887763977,0.004969821311533451,0.02703397162258625,-0.01953485980629921,0.03217906504869461,0.008466295897960663,0.00811745971441269,0.004711722489446402,-0.009145833551883698,-0.022702986374497414,0.08520930260419846,0.004141165409237146,0.01823333464562893,-0.027735648676753044,-0.038181670010089874,0.019917497411370277,0.05407685786485672,0.0487084724009037,0.005549359600991011,-0.008691671304404736,0.001375121297314763,-0.019970662891864777,-0.009128302335739136,-0.03604350984096527,-0.023957112804055214,-0.032388098537921906,-0.01780756376683712,-0.12486942857503891,0.00409558555111289,0.02241503819823265,-0.024892441928386688,0.023173024877905846,0.0015583907952532172,-0.0017504483694210649,-0.023346077650785446,0.00020395356114022434,0.00886689405888319,-0.004536308813840151,0.006961380131542683,-0.0297243669629097,-0.04195073992013931,0.033170681446790695,0.007675026543438435,0.007327512372285128,0.007757660001516342,-0.030962752178311348,-0.028498688712716103,0.010688898153603077,-0.05030049756169319,0.014960807748138905,-0.018304267898201942,0.014205897226929665,-0.014038076624274254,0.05960163101553917,-0.023713795468211174,0.021296363323926926,-0.015009541064500809,-0.005525544751435518,-0.005427186843007803,-0.004213594365864992,0.0529603436589241,0.0799732655286789,-0.001055801403708756,0.01279477123171091,-0.00659592542797327,-0.0028993049636483192,-0.03628930449485779,-0.05016304552555084,0.02892846055328846,0.01883826032280922,0.02927497960627079,-0.024205893278121948,-0.008954240009188652,0.015826718881726265,-0.016702959313988686,0.028163302689790726,0.0006765044527128339,0.02523641474545002,0.03592337667942047,0.004890806507319212,0.002040680032223463,0.011583417654037476,-0.008943160064518452,-0.05650237575173378,0.015142581425607204,-0.041920602321624756,-0.00029970804462209344,0.009706283919513226,-0.05773913487792015,-0.04543459787964821,0.022632600739598274,-0.04164824262261391,-0.015042921528220177,-0.0023694143164902925,0.031511738896369934,-0.011062144301831722,-0.011001414619386196,0.035757776349782944,0.042430855333805084,-0.00757392356172204,-0.06346704810857773,0.03434612601995468,-0.02275308035314083,0.0042505692690610886,0.021086402237415314,0.03589500114321709,-0.01757052168250084,0.05398204177618027,-0.007841900922358036,-0.051155176013708115,0.0018410905031487346,0.005557337775826454,-0.013652758672833443,-0.02433985471725464,0.09302110970020294,-0.0002610428782645613,-0.03193044662475586,-0.016857922077178955,0.003940435592085123,-0.00095617730403319,-0.04717734828591347,-0.05473032593727112,-0.0016098947962746024,0.013801421038806438,-0.02649078331887722,-0.008491347543895245,0.002096121199429035,-0.016918858513236046,0.0031752418726682663,0.022835547104477882,0.013939053751528263,-0.027134016156196594,-0.005211344920098782,-0.000585848989430815,-0.05302879214286804,-0.026273855939507484,0.05342859774827957,0.0038031339645385742,0.0012747441651299596,0.0007526871049776673,-0.015767468139529228,-0.05184983089566231,-0.0021845130249857903,-0.03014400042593479,-0.022659212350845337,0.038320381194353104,0.015266481786966324,-0.00442910473793745,0.060942232608795166,0.00687230983749032,0.061273690313100815,0.028151854872703552,-0.026586150750517845,0.009686402045190334,-0.004603322129696608,0.059989526867866516,0.01419245544821024,-0.010670325718820095,-0.02804466336965561,0.02492067776620388,0.008548468351364136,0.02740793116390705,-0.0019498688634485006,0.03050859086215496,0.018393924459815025,-0.0344010628759861,0.015449212864041328,-0.009316425770521164,0.02966596931219101,0.02404034323990345,0.0352075956761837,0.021685922518372536,-0.05645601451396942,0.01885601505637169,-0.004678624682128429,0.0012969812378287315,0.006516711786389351,-0.047777365893125534,-0.061462122946977615,-0.033793509006500244,-0.0018631042912602425,0.0033159488812088966,0.024144446477293968,-0.017554940655827522,-0.0005984784802421927,-0.01816502958536148,0.02298155054450035,-0.019127320498228073,0.024550003930926323,0.017435694113373756,0.04555652290582657,0.044950537383556366,-0.016661040484905243,0.005255076568573713,0.010562884621322155,0.03224252536892891,-0.015152676962316036,-0.0016499565681442618,0.04411960393190384,-0.01700676418840885,-0.025152379646897316,-0.0031675840727984905,-0.026875803247094154,0.00023621245054528117,0.026160096749663353,-0.024729300290346146,-0.03852624446153641,0.014489501714706421,0.022980162873864174,0.003985944204032421,0.04458537697792053,0.027654249221086502,0.01626051589846611,-0.01564934477210045,0.048023249953985214,0.007740888278931379,0.02082115225493908,-0.02640986256301403,-0.008170357905328274,0.03819849342107773,0.0325300469994545]]}}},"searchableProperties":["id","title","path","content","embedding","embeddingModel","created_at","ctime","mtime","tags","extension"],"searchablePropertiesWithTypes":{"id":"string","title":"string","path":"string","content":"string","embedding":"vector[1024]","embeddingModel":"string","created_at":"number","ctime":"number","mtime":"number","tags":"string[]","extension":"string"},"frequencies":{"id":{"4":{"47b52ef96a920ab33159b46456c1ee60":1},"5":{"7afb3aa06c849214862fc3641959d7eb":1},"6":{"8cd9221f665cd0b9810cef9fed70dd57":1}},"title":{"4":{},"5":{},"6":{}},"path":{"4":{"redis":0.5,"md":0.5},"5":{"redis":0.5,"md":0.5},"6":{"redis":0.5,"md":0.5}},"content":{"4":{"0":0.034482758620689655,"1":0.034482758620689655,"2":0.034482758620689655,"3":0.034482758620689655,"4":0.034482758620689655,"6":0.034482758620689655,"8":0.034482758620689655,"12":0.034482758620689655,"13":0.034482758620689655,"14":0.034482758620689655,"27":0.034482758620689655,"28":0.034482758620689655,"55":0.034482758620689655,"2025":0.034482758620689655,"note":0.034482758620689655,"title":0.034482758620689655,"metadata":0.034482758620689655,"created":0.034482758620689655,"04":0.034482758620689655,"05":0.034482758620689655,"modified":0.034482758620689655,"block":0.034482758620689655,"content":0.034482758620689655,"n":0.034482758620689655,"img":0.034482758620689655,"images":0.034482758620689655,"webp":0.034482758620689655,"x":0.034482758620689655,"y":0.034482758620689655},"5":{"1":0.04,"2":0.04,"3":0.04,"4":0.04,"11":0.04,"13":0.04,"15":0.04,"27":0.04,"56":0.04,"58":0.04,"2025":0.04,"note":0.04,"title":0.04,"metadata":0.04,"created":0.04,"04":0.04,"modified":0.04,"block":0.04,"content":0.04,"redis":0.04,"key":0.04,"api":0.04,"img":0.04,"images":0.04,"webp":0.04},"6":{"0":0.017857142857142856,"1":0.017857142857142856,"2":0.017857142857142856,"3":0.017857142857142856,"10":0.017857142857142856,"13":0.017857142857142856,"16":0.017857142857142856,"27":0.017857142857142856,"49":0.017857142857142856,"52":0.017857142857142856,"58":0.017857142857142856,"60":0.017857142857142856,"300":0.017857142857142856,"900":0.017857142857142856,"2025":0.017857142857142856,"10000":0.017857142857142856,"note":0.017857142857142856,"title":0.017857142857142856,"metadata":0.017857142857142856,"created":0.017857142857142856,"04":0.017857142857142856,"modified":0.017857142857142856,"block":0.017857142857142856,"content":0.017857142857142856,"aof":0.017857142857142856,"redis":0.017857142857142856,"append":0.017857142857142856,"only":0.017857142857142856,"file":0.017857142857142856,"conf":0.017857142857142856,"shell":0.017857142857142856,"appendonly":0.017857142857142856,"yes":0.017857142857142856,"no":0.017857142857142856,"appendfilename":0.017857142857142856,"img":0.017857142857142856,"images":0.017857142857142856,"webp":0.017857142857142856,"server":0.017857142857142856,"aof_buf":0.017857142857142856,"write":0.017857142857142856,"page":0.017857142857142856,"cache":0.017857142857142856,"appendfsync":0.017857142857142856,"always":0.017857142857142856,"everysec":0.017857142857142856,"bgrewriteaof":0.017857142857142856,"fork":0.017857142857142856,"cpu":0.017857142857142856,"copy":0.017857142857142856,"on":0.017857142857142856,"rdb":0.017857142857142856,"save":0.017857142857142856,"bgsave":0.017857142857142856,"redis4":0.017857142857142856,"aof-use-rdb-preamble":0.017857142857142856}},"embeddingModel":{"4":{"bge-m3":1},"5":{"bge-m3":1},"6":{"bge-m3":1}},"tags":{},"extension":{"4":{"md":1},"5":{"md":1},"6":{"md":1}}},"tokenOccurrences":{"id":{"da1bc8c4a2c770e2279eca4ef492bb62":0,"169ab55cde4e17f9a82275fdb473cc1e":0,"6ee416f1c3592dfc81980b4d12cea614":0,"47b52ef96a920ab33159b46456c1ee60":1,"7afb3aa06c849214862fc3641959d7eb":1,"8cd9221f665cd0b9810cef9fed70dd57":1},"title":{},"path":{"redis":3,"md":3},"content":{"0":2,"1":3,"2":3,"3":3,"4":2,"6":1,"8":1,"10":1,"11":1,"12":1,"13":3,"14":1,"15":1,"16":1,"26":0,"27":3,"28":1,"29":0,"41":0,"49":1,"50":0,"52":1,"53":0,"55":1,"56":1,"58":2,"60":1,"300":1,"900":1,"2025":3,"10000":1,"note":3,"title":3,"metadata":3,"created":3,"04":3,"modified":3,"block":3,"content":3,"redis":2,"key":1,"aof":1,"append":1,"only":1,"file":1,"conf":1,"shell":1,"appendonly":1,"yes":1,"no":1,"appendfilename":1,"img":3,"images":3,"webp":3,"server":1,"aof_buf":1,"write":1,"page":1,"cache":1,"appendfsync":1,"always":1,"everysec":1,"bgrewriteaof":1,"fork":1,"cpu":1,"copy":1,"on":1,"05":1,"n":1,"x":1,"y":1,"api":1,"rdb":1,"save":1,"bgsave":1,"redis4":1,"aof-use-rdb-preamble":1},"embeddingModel":{"bge-m3":3},"tags":{},"extension":{"md":3}},"avgFieldLength":{"id":1,"title":0,"path":2,"content":36.666666666666664,"embeddingModel":1,"tags":0,"extension":1},"fieldLengths":{"id":{"4":1,"5":1,"6":1},"title":{"4":0,"5":0,"6":0},"path":{"4":2,"5":2,"6":2},"content":{"4":29,"5":25,"6":56},"embeddingModel":{"4":1,"5":1,"6":1},"tags":{},"extension":{"4":1,"5":1,"6":1}}},"docs":{"docs":{"4":{"title":"","path":"redis/.md","embeddingModel":"bge-m3","ctime":1745729705916,"mtime":1745730868647,"tags":[],"extension":"md","metadata":{"created":"2025/04/27 12:55:05","modified":"2025/04/27 13:14:28"},"id":"47b52ef96a920ab33159b46456c1ee60","content":"\n\nNOTE TITLE: [[]]\n\nMETADATA:{\"created\":\"2025/04/27 12:55:05\",\"modified\":\"2025/04/27 13:14:28\"}\n\nNOTE BLOCK CONTENT:\n\n## \n\n ** 0 **  **N ** \n\n## \n\n1.  N  N \n2.  N \n3.  1\n\n 8 3 \n[img ](../images/.webp)\n\n## \n\n ****  x  y  146  y\n\n## \n\n","embedding":[-0.018290529,-0.039770547,-0.04809062,0.042637806,-0.0007627681,-0.014621219,-0.008083201,0.01309761,0.0073521677,0.018050484,-0.038635697,0.018893043,0.032177363,0.022647912,-0.00048036213,-0.024048116,0.0042752963,-0.020649638,0.046537578,-0.007996965,-0.04057485,0.019789483,0.01011541,0.032385938,0.0036337592,0.011963067,0.0059324666,-0.012426949,-0.026594114,0.028666718,-0.019161075,-0.01786909,0.0023499737,-0.03437,0.023845676,-0.016739747,-0.041013602,0.008662285,-0.01125752,0.02274943,0.0062158816,-0.0034076066,-0.024835808,-0.031219698,0.015536528,-0.017281633,0.0032361124,-0.040078655,-0.0056547686,-0.05941094,-0.02572104,-0.02721634,0.08111221,-0.042630266,0.016469844,0.031866517,-0.017186478,-0.036003266,-0.030181393,-0.022350153,0.016661558,0.024377454,-0.013853546,0.018866539,0.01823847,0.042798173,-0.0061828033,0.0119015975,-0.014455645,-0.040531456,-0.022016456,0.042996842,-0.020176074,-0.011304111,-0.056326933,0.02942724,0.012243107,-0.022410573,-0.020010674,0.010989757,-0.015159174,-0.031704456,-0.004294466,-0.020764675,0.0134163,0.030790934,0.0054560998,0.024705999,-0.02797474,-0.03165386,0.009622296,0.030204833,-0.014675797,-0.019359874,-0.03584503,0.011470323,-0.005650514,0.011454039,0.013651514,0.018166676,0.021381179,0.02849583,-0.028105937,-0.001655665,-0.0029221454,0.048843563,0.028298892,-0.03387736,0.0046630036,-0.034272816,-0.0011938838,-0.014381213,0.010736785,0.040405184,-0.004604459,0.0067064934,-0.068773076,-0.036930516,-0.010512209,-0.017705154,0.058298387,0.05634535,0.019860065,-0.03456879,0.0018924448,-0.044985015,-0.025280982,0.024904128,0.019385284,0.050059747,-0.021277947,-0.007896926,-0.014644858,0.02706566,-0.06985918,0.007634956,0.006644739,0.021962356,-0.005455309,-0.024805026,0.02280849,0.043327365,0.0061952225,-0.03867238,0.017180894,-0.023117635,0.044153936,0.06225684,0.012361187,0.0027271793,-0.019738488,0.0231293,0.01966187,-0.0105978865,0.011323203,-0.001244354,-0.0066873697,0.0041632443,-0.04128306,0.061138444,0.014627833,0.051031325,-0.058602262,0.00979046,0.048273142,0.046938907,0.00938021,0.011502986,-0.02409139,-0.032118846,0.0034563688,-0.013103528,0.002155248,-0.0037708136,0.024460763,0.039559443,0.054076403,0.01817321,-0.02813567,-0.013967214,-0.0365334,0.016749999,0.022112297,0.016862787,-0.0021008018,0.03299231,-0.0143218655,-0.018366897,-0.011283854,0.05586929,-0.0126513615,-0.013920404,-0.0040718126,0.00009429625,-0.011396894,-0.007818989,-0.014828341,0.009308065,0.0033665707,-0.025860172,0.015252928,-0.004652523,0.004623763,-0.000047540445,0.0013033396,0.0065078256,-0.037718523,-0.077996925,0.02031033,-0.012288791,0.022670759,0.013158084,-0.0074630664,0.023138762,-0.04483211,-0.008720708,-0.032340355,-0.007787083,-0.042309225,-0.028761348,-0.028184792,0.00913516,0.031252455,0.02792337,0.050024893,-0.024384663,0.04839127,0.035283234,-0.0068281046,-0.034436367,-0.018988792,0.000689791,0.014067113,0.0044691716,0.014550685,0.010783314,-0.020616923,0.046646204,0.07120698,0.0038557746,-0.031375144,0.009920433,0.014133719,-0.0077075525,-0.019916104,0.022781292,-0.0066862544,-0.017593266,0.0046167937,0.034015924,-0.019013347,0.025309533,0.008211439,0.00932848,0.03286083,0.0058234385,-0.00282273,-0.00896211,-0.02820738,-0.06341236,0.0010123862,0.018637411,0.025117667,0.009573688,0.012680872,-0.029644031,-0.026211994,-0.015222508,-0.015545579,0.0015826684,0.007937948,0.000115423965,0.038594726,0.038502496,-0.013760988,0.04245077,-0.012822535,-0.020083433,0.076972686,0.037464283,0.0025227158,0.04149775,0.004435149,0.036374062,0.028634677,0.0049041994,-0.02951195,-0.03289604,0.024115011,-0.020613974,-0.005571229,-0.0225821,0.07017549,0.008508455,-0.018654319,-0.0018702717,-0.008462418,-0.16526537,-0.051397417,0.019887859,-0.036555313,0.01784194,-0.008781718,-0.04438001,0.0066677295,-0.038978647,-0.016222252,-0.023806246,-0.05599658,-0.035215802,-0.03452568,0.05683078,-0.05154949,-0.00088205346,-0.011022954,0.0078081847,-0.011312908,-0.017119994,-0.048529822,0.06640687,-0.020330187,-0.046234723,-0.010930331,0.030604724,0.033483274,-0.03612288,-0.026759377,0.027645841,0.028418176,-0.0016882309,0.018764853,0.021813193,-0.0070324587,0.0055558523,-0.03877027,0.054461863,0.008048079,0.049910545,0.021574434,-0.024743425,0.054071575,-0.0042247805,-0.025244793,0.03518229,0.024309596,-0.011686934,0.0040255487,-0.042291645,-0.0063734655,-0.029166512,-0.02590922,-0.03452563,0.010704055,-0.0068150307,0.021221695,-0.05626974,0.010815796,0.02627237,-0.010055016,0.0041638925,-0.0011185468,-0.03122857,-0.051771414,0.017684156,-0.04026547,-0.044554614,-0.035314973,0.04132427,0.021772303,-0.022758378,-0.0047954386,-0.05682588,-0.02117667,-0.033590723,0.011554305,0.023497028,-0.10619399,0.019777335,-0.007195367,-0.007267676,0.022288786,0.007346822,0.010405769,-0.02744246,0.007354817,-0.012512813,0.24952386,0.0006334634,-0.033745944,-0.018066036,0.0022422231,-0.005677185,0.030639969,-0.0060710055,-0.0021378465,-0.02140289,-0.01808255,0.008372342,0.026790986,0.0069421674,-0.018110447,0.028208962,-0.024746638,0.045311414,0.07591582,0.0045596384,0.03287345,0.030124903,0.052797295,0.026268182,-0.030306313,-0.060934786,-0.018276539,-0.0058147516,-0.04297678,-0.0004455968,-0.024698902,0.014517355,0.021570895,-0.035063732,-0.023624,-0.027045289,0.04358106,0.018500661,0.051404517,0.041844998,-0.008592639,-0.016035315,-0.027156971,-0.019216163,0.013396747,-0.0022580097,0.020484213,-0.014381351,0.032243114,0.004397856,-0.043345742,0.0038795013,-0.033022847,-0.009145235,-0.056040917,-0.022445709,-0.048151262,-0.034066133,0.0019909171,0.046976656,0.03161103,0.007369445,-0.031284407,0.006533777,-0.004808382,-0.00434944,-0.0670659,-0.050605323,0.054723542,0.013218442,0.02242535,-0.0050605917,0.0015349217,-0.0062735593,0.03684135,-0.0060470346,0.006800382,0.030012889,-0.03639998,-0.04636351,-0.04617987,-0.019199984,0.0027910771,0.079435736,-0.009899162,0.011281277,-0.03783453,0.042818777,-0.038778894,-0.025833802,-0.052708466,-0.022881811,-0.035841104,0.022626005,-0.016901603,0.028477812,-0.009482546,-0.026768196,-0.032778192,0.0044271634,-0.016678017,-0.03453348,0.009984362,0.056670867,0.061133727,0.008604242,-0.014603157,0.042516418,0.027436117,0.016990772,-0.0693426,0.043608155,-0.0030478584,-0.025239533,0.04777986,0.04433137,-0.018070169,0.04236775,-0.041760687,0.06182871,-0.004976547,0.027356425,0.04722622,-0.010506386,0.00609406,-0.015008614,0.020235555,-0.030849393,-0.012215444,0.048014216,0.022265235,-0.040147558,-0.016963668,0.014432823,0.009316449,-0.020240445,0.043814242,0.02552867,-0.012442062,-0.032618407,-0.05349632,-0.03753112,-0.033369984,-0.0043108473,-0.025369028,-0.037232213,0.04694204,-0.028611902,-0.04456544,0.022173148,0.005815993,0.026872883,0.005857232,-0.07324698,-0.0410443,-0.037722524,-0.02632917,0.017774247,-0.018942066,0.00027072208,-0.022992391,0.057285905,-0.030839792,0.02113512,0.0063070683,0.010339053,0.0012390449,0.027228674,0.026176691,-0.044835288,0.039791048,-0.04217224,-0.047693048,0.030947847,0.0074605574,-0.055138092,-0.10650422,-0.02239225,0.011103323,-0.034136996,0.020628763,0.05227753,-0.028770728,0.050783727,0.040103436,0.047011174,-0.016857967,-0.019899571,0.0722558,-0.0041701817,-0.008838782,0.13107008,0.022972614,-0.0075667887,0.024750648,0.0012851818,0.0625059,0.015090906,-0.0011477971,-0.03174859,0.06956936,0.003454134,0.0011634886,0.018965913,-0.026965905,-0.024992388,0.009958496,0.01452061,-0.018997606,0.02495962,-0.0003116716,-0.005197045,-0.047721528,0.0022396815,0.003784109,-0.019325756,0.051261958,0.045204263,-0.013923887,-0.016506406,0.044410735,-0.048655473,0.027553448,0.0012317989,-0.022808427,-0.0036099579,0.0010851925,0.0073225866,0.011476276,-0.012322516,-0.0012019387,-0.010096998,0.015946712,-0.01675138,0.016557403,-0.045116905,-0.0066475584,0.036322024,0.020591814,-0.01799532,0.0030574366,0.063027196,0.05736885,0.027201677,-0.0043173963,0.073028974,-0.003106787,-0.009288232,0.002291614,0.027338326,-0.034666177,-0.008254341,-0.007903308,-0.0012511633,0.040269926,0.02029728,-0.012162623,0.012274448,0.008437938,-0.06538664,-0.032602828,0.026245072,0.008345352,-0.020231877,-0.03842616,-0.025206786,0.010680687,-0.06259882,-0.020492181,0.005384116,-0.037826806,-0.0277815,-0.0011143994,-0.06508854,0.004397843,-0.02414571,0.0043943827,-0.02856824,-0.020335946,0.019805904,0.010431232,-0.007751666,0.056479137,0.01259938,0.021516642,0.025703821,-0.016749304,0.020222543,0.013896055,-0.04734599,-0.02625774,0.0017562862,-0.028650649,0.030706793,0.0049438034,-0.003056614,-0.04070292,-0.0028488054,0.0031909544,0.008238158,-0.047373556,0.01908149,-0.014709986,0.022533348,0.00544008,-0.0013784538,0.0016852636,-0.061171807,0.026027614,0.046173565,0.02192912,-0.032462705,-0.011157245,0.05874014,-0.008636183,-0.026399782,0.063297346,-0.009377312,-0.005463878,-0.012528624,-0.013794181,-0.015560338,-0.033563763,0.017056074,0.008149821,-0.011192983,-0.03146344,0.04983906,-0.05880929,-0.01643251,-0.026491296,-0.042542856,-0.0039220606,-0.018319277,0.001914408,-0.025058998,-0.008870778,-0.05736221,0.049459986,0.013559762,-0.032526087,-0.036436036,0.062135,-0.034773644,-0.0035852392,-0.039480828,-0.011897957,-0.0074020964,-0.003736652,0.008630757,0.009812568,0.013024447,-0.01402383,-0.034472976,0.029876342,-0.00016283472,-0.018702203,0.021033557,0.050904244,-0.00784657,-0.014491649,0.0006904369,0.0142701445,-0.0015353108,0.0071949037,0.020883728,0.07771372,-0.000783336,-0.009006735,-0.023697857,-0.046101462,0.062166277,-0.008880993,-0.025828011,-0.015234496,0.023206895,-0.007896726,-0.0130819455,0.014675513,0.03224249,-0.005044645,-0.008443745,-0.015137904,-0.03127087,0.01848763,0.0324067,-0.008895473,-0.014082389,0.016104635,0.04282734,-0.026492473,-0.018513678,-0.031654283,-0.021080442,-0.1367543,0.02047471,-0.020850806,-0.014941248,-0.010047641,0.009405172,-0.014844148,-0.05599215,-0.026523886,-0.04214011,-0.027375389,-0.029128265,-0.0031722102,-0.052594896,0.036992308,0.032321177,-0.021254435,-0.013599573,-0.012175094,0.026837857,-0.003358294,0.004412067,0.007918747,0.0037223713,0.0022715633,-0.019227695,0.060736407,0.02220701,-0.011833166,-0.05948049,-0.00599625,-0.027479319,0.0042460887,0.023005534,0.0033969115,0.025414271,0.016444016,-0.00034312494,-0.00014928594,0.018877907,-0.0265982,0.024931096,-0.011446325,0.019407101,0.03575396,0.042233348,-0.005093472,-0.030015243,-0.042166896,0.0138229905,-0.004124614,-0.010550544,-0.036424235,-0.016408924,0.003712392,-0.03242787,-0.032905072,-0.005659125,-0.00080996176,0.0051901266,-0.031275194,0.014014851,-0.048713323,-0.014196982,-0.022569424,-0.004266552,-0.039450407,0.027898304,0.0205232,-0.033195745,-0.023255521,0.051307168,0.0071784183,-0.02984174,0.004480835,0.0053264545,0.016708253,-0.021786159,-0.010982613,0.0026686678,-0.043999895,-0.040235057,-0.023920242,0.06884528,0.035822116,0.016942928,-0.0017669523,0.027595311,-0.020947518,0.048385806,-0.048880186,0.006024362,-0.00092103187,0.0063123936,-0.01798095,0.029898828,-0.041195717,-0.025067545,-0.0003911852,-0.019175654,-0.011346133,-0.015456461,0.008831694,0.049450595,0.015671723,0.025343139,0.046453968,-0.017191865,0.03978355,-0.0023363053,0.022026187,0.01761982,-0.009327144,0.020305403,0.024906704,-0.015423019,-0.036793668,0.018210955,-0.0043291617,0.013015304,0.015228539,0.0061418004,-0.059030946,0.0058645005,0.026561487,-0.008424252,-0.006760402,0.00089722994,0.018514516,0.02799895,0.010543569,-0.022457497,-0.015334593,0.008557618,0.034000576,-0.022457408,-0.035776366,0.05569739,-0.02372257,0.0110334875,-0.0011135911,-0.04614292,-0.009261927,-0.021832595,0.02279132,-0.0062358626,0.0075723445,-0.003201129,-0.020794556,-0.0012633172,-0.0037125438,0.020621836,-0.040151533,0.0045535876,-0.05953942,0.040060483,-0.02218361,-0.00821783,-0.02671116,0.022775654,-0.027312433,-0.012516318,-0.011721117,-0.014298644,-0.0075354036,0.022791235,-0.024793059,0.012638716,-0.026732102,0.0015087917,0.0102567775,-0.0029379749,-0.029592076,0.044149887,0.013663932,-0.02381878,0.012248777,-0.07065331,0.041662242,-0.020250054,0.033454675,0.003313917,0.050118294,0.0018908306,0.028714484,0.06793551,0.0069085974,0.053936265,0.030669024,0.04217931,0.06073745,0.024698978,0.016476622,-0.03086126,0.06405929,-0.026228422,0.01784932,0.02357762,-0.00013955234,0.057520412,-0.017637748,0.053078175,-0.022550406,-0.0008992295,0.0049059116,-0.032533947,0.007739829,0.003260545,-0.018038161,0.013037294,-0.01770664,-0.036618553,-0.011339566,0.029363828,0.0124616865,-0.016520236,0.04771207,0.004664388,0.024010275,-0.010896469,0.048977535,0.0076463893,0.015348655,-0.025146244,-0.055927493,-0.05982062,0.006324394,-0.016655266,-0.0024296727,-0.037797704,0.033708006,0.027894074,-0.010168937,0.011150496,-0.029061843,-0.025571715,0.003894304,0.016448906,-0.01766688,0.03667096,0.044694204,0.009748926,0.017206503,-0.01522089],"created_at":1745743917763,"nchars":542},"5":{"title":"","path":"redis/.md","embeddingModel":"bge-m3","ctime":1745723756064,"mtime":1745730958792,"tags":[],"extension":"md","metadata":{"created":"2025/04/27 11:15:56","modified":"2025/04/27 13:15:58"},"id":"7afb3aa06c849214862fc3641959d7eb","content":"\n\nNOTE TITLE: [[]]\n\nMETADATA:{\"created\":\"2025/04/27 11:15:56\",\"modified\":\"2025/04/27 13:15:58\"}\n\nNOTE BLOCK CONTENT:\n\n## \n\n### \n\n1. \n2. redis \n\n### \n1. \n\t1. **** \n\t2. **** ** redis ******\n\t3. ** key **  key ** key******** key**** key** ** key**  key \n\t4. **** ****\n\t\t1. ********\n\t\t2. ****\n2. redis \n\t1. **** \n\t\t1. ****\n\t\t2. ****\n\t2. ** redis ** \n\n## \n\n### \n\n1. \n\n### \n\n1. **** \n2. **** \n\n## \n\n### \n\n1. \n\n### \n\n1. ****  api \n2. **** \n3. **[[]]** \n\n## \n\n[img ](../images/.webp)","embedding":[0.013360495,0.022019196,-0.032956827,0.018305736,0.010368212,-0.038949117,0.039697975,0.0794597,-0.018478636,-0.0014523559,-0.0045141587,0.0111491345,-0.014151655,0.032834083,-0.01679308,-0.013988463,-0.0030623493,0.0005091039,-0.022301413,-0.0015441878,-0.042750478,0.006418291,0.014494472,-0.018540075,-0.013228628,0.056192786,-0.014696564,-0.048813455,-0.00912048,0.015762927,0.04645877,-0.012107869,-0.0035203127,-0.034467418,-0.005613242,-0.05973709,-0.004241269,-0.029645173,-0.09348907,-0.0056344387,0.012160445,-0.015284664,-0.029153015,0.007857136,-0.0041395267,-0.0018184899,-0.013255754,-0.066366926,-0.015430983,-0.014309149,-0.04812568,-0.011129716,-0.005342203,-0.030549088,-0.004221711,0.047108807,0.009101681,-0.00381568,0.012148342,-0.003822082,0.01090109,-0.011470428,0.00048160768,-0.008479944,-0.030532068,0.016367475,0.00906101,0.03847859,0.02435089,-0.048917364,0.006457249,0.028750166,-0.040827014,-0.061281588,0.005904319,-0.0069507137,0.014057629,0.008445561,0.004316054,-0.044167656,0.10556277,-0.04404283,0.020582736,-0.017724115,-0.036485437,-0.032347843,-0.029654173,0.04440609,0.019681284,0.01543272,0.016943322,0.04246243,-0.00006643021,-0.059554007,-0.0017347047,-0.0077974,-0.0026867408,-0.018179266,0.04776852,-0.0055283327,-0.034598198,0.0033736525,0.00566217,0.031216266,0.029692657,0.00055116566,-0.004990919,0.022548048,-0.02766388,0.0139679285,-0.029323092,-0.018887658,-0.019542204,0.014643775,-0.0017349083,-0.010831464,-0.024374634,-0.011361669,0.017564885,-0.001151124,0.009818665,0.06494613,0.016963517,-0.0073656472,0.0060188915,0.0087248795,-0.024111545,0.05274088,-0.063025795,0.0055619767,0.0046123387,0.021833256,0.051887646,-0.027073883,-0.03189534,-0.010302043,0.03788306,0.07575205,0.054261185,-0.041823093,0.012028736,0.014493288,-0.025535043,-0.010159323,0.05983693,0.0050937207,0.011021254,0.013023842,-0.033302218,0.04138847,-0.026844332,-0.042053953,-0.0015460912,-0.009326235,0.013987031,0.004823192,0.022242144,-0.0055428636,0.007689555,-0.02819521,-0.004111269,-0.013711902,0.0040283925,0.0719746,0.02630083,0.011996724,0.012186185,0.0075713745,-0.007567167,-0.017701605,0.004119564,-0.07124621,0.021428628,-0.0022013818,0.029092576,0.060798407,0.0522083,0.024000308,0.00700486,-0.031031286,-0.016411133,0.005391103,0.035816625,-0.046322335,0.02722672,-0.0061049373,0.0014689065,-0.0036846916,0.003990239,0.06838441,-0.006662953,-0.032652926,0.053385787,0.009811321,-0.005555284,-0.02080362,-0.018820854,0.0040738876,0.055571772,-0.04982695,-0.02456832,0.018444447,-0.034613848,0.036514096,-0.006635053,0.007918723,-0.013871771,-0.05887287,0.01532256,0.019839942,0.03038212,0.0060749426,-0.02011751,0.014806207,-0.012726954,-0.015577524,0.007116368,0.0077813077,0.024102116,0.0053105676,-0.002288838,-0.022876576,-0.008197967,-0.018323932,0.034025572,0.027031124,0.029836578,0.047408625,0.020585937,0.011646329,-0.0552763,0.09010065,-0.02737176,-0.019912502,-0.0032135658,0.01956209,-0.0409965,0.0001668508,0.039275236,0.0288447,-0.015836902,-0.05821262,-0.0097265765,-0.041897133,-0.05412733,0.026373811,0.005452561,0.012871143,-0.023028987,-0.0046960763,-0.04846535,-0.021208785,0.00860402,-0.035212193,-0.011931898,-0.08228362,-0.023564773,-0.017720303,0.030899568,0.022110151,0.028297627,-0.018949814,-0.009605698,0.03675133,-0.0326288,-0.0055554444,-0.018497264,-0.04122234,0.004649472,0.062326312,-0.026855893,0.016989356,-0.033101726,0.0069791316,-0.01633458,-0.012547614,0.013052643,-0.031924088,0.037142374,-0.008887455,0.0020855889,-0.008187676,0.000051395884,-0.026054207,-0.008687186,0.042719617,-0.018746316,-0.004833157,0.0129905,-0.017650109,-0.0068471846,0.020671325,0.0856085,-0.019484382,0.028920697,0.015607743,-0.022377267,-0.19374424,-0.017606104,0.021461058,-0.01978432,0.002563076,-0.01312254,0.0075483867,0.015087754,-0.0018330252,-0.03849522,-0.034894627,-0.14225928,-0.017992051,-0.0239946,0.034637406,0.044667512,0.040820133,0.012212834,0.010372831,-0.07777333,0.01517949,0.01455413,0.032869726,0.015383927,0.029818775,0.00066140154,0.00549595,0.06415039,-0.024775425,0.0096264295,-0.033583324,0.015443539,-0.03851737,-0.039141625,0.0167842,0.026972031,0.019741056,-0.029033607,0.009196695,-0.0013685687,0.043450944,0.022904556,-0.0028430345,-0.07343287,0.03908193,-0.0019424588,-0.015952442,0.0015815744,-0.010771601,0.032704167,-0.0047234725,0.018334951,0.0032557405,-0.016918829,-0.019805038,0.0150929475,0.012487732,0.04955273,0.017259894,0.017598605,-0.0109530715,-0.048721056,-0.040721096,-0.0096195135,0.013812139,-0.0058342516,0.0017705567,-0.017698128,0.009791151,-0.048965614,0.017071828,0.00358543,-0.030174816,-0.031393483,-0.02415514,0.0005923763,0.0008187756,-0.019588977,-0.035814498,-0.07399181,0.014107415,0.0072334246,-0.033834126,0.013982732,-0.016335486,0.018815687,-0.06051927,-0.047088247,0.011777963,0.31563482,-0.031703632,-0.028275829,0.022284431,0.014570733,0.023871286,0.0135278925,0.007946893,0.017720113,-0.008271583,-0.0048062233,-0.0061128363,-0.003667867,0.031975042,-0.00011110289,0.037593294,-0.026864968,0.0071509937,0.0003285255,-0.012748795,0.02224691,-0.033447947,0.008899797,0.01948082,-0.032692634,0.022918269,0.01783546,0.0073155495,-0.06359069,-0.0032650628,-0.013803102,0.011677188,-0.016469745,-0.046511065,-0.031072676,0.030804371,-0.0789073,-0.04226229,-0.016478317,0.017193982,0.029462092,-0.021428937,-0.017399736,0.0012543694,-0.035799544,-0.03360158,-0.01737955,-0.021450536,-0.03035737,-0.038191546,-0.0032250192,-0.026850749,-0.029750662,0.02295479,-0.009611596,0.0028607447,-0.034731954,0.010689045,-0.025748843,0.009671803,0.007052947,0.018094163,-0.06630656,0.0425213,0.041929573,0.009189627,-0.029272795,-0.008810915,0.0014841153,0.0025188373,0.026600568,0.032725677,0.02836715,-0.014755811,-0.017327962,-0.017881393,-0.011366576,0.02809853,-0.024588214,0.031445406,-0.018219503,0.009189739,0.019999022,0.041981835,0.010159124,0.04038036,-0.029811688,0.041852526,0.0015130142,-0.04699348,-0.0021848318,-0.026989866,-0.013683823,-0.00014791828,0.05209404,-0.0005831969,-0.011995674,-0.055628777,-0.0037686909,-0.014169539,0.035331324,0.0012983719,0.021652061,-0.012803186,-0.009639228,-0.011682349,0.0068367743,-0.02197634,-0.011758307,-0.0013401986,-0.041495726,0.022871746,0.0036879294,-0.008841286,0.037224397,0.028505394,0.022156868,0.04245231,0.01565819,0.012438266,-0.040908653,-0.026754443,0.0067700045,0.010347442,0.0071071847,-0.068459496,0.025854077,-0.027925141,-0.03168595,0.020016192,0.029603334,0.025375161,-0.018105378,-0.0058400505,-0.01937912,-0.051488403,0.019738575,0.0001829073,0.006253642,0.023910847,0.03242051,-0.024054527,-0.00038723677,0.021226835,-0.033763207,-0.015124547,-0.0067252894,-0.01710176,0.010534591,-0.017262537,0.005239876,-0.01546107,0.02881343,-0.018467853,-0.016022334,0.00031118863,0.0124641545,0.00959248,-0.038507223,-0.020837286,-0.02675207,0.011083959,0.022085758,0.05721485,0.027225452,0.04842652,0.020562658,0.051554777,-0.0054532667,-0.009386367,0.022094091,-0.044487353,0.009814128,0.02227399,0.037776474,-0.04909962,-0.024378462,0.036948055,0.026992906,0.022985686,0.052071508,0.012870567,-0.021639548,0.025621502,-0.036663312,0.017002296,-0.0028840331,0.004003881,0.0022495883,-0.009517055,0.020948282,0.07046581,-0.00764067,-0.004388688,0.021701913,-0.02375509,-0.0017339125,0.003983969,-0.014409423,0.0026935355,0.055344786,0.00793271,0.004580909,0.02917294,0.046211503,0.0059818164,0.040832184,0.030713765,0.012853975,-0.046384275,0.03424213,0.0071223127,-0.012946682,-0.02251977,-0.013960476,-0.026975412,0.05995806,0.021738084,0.017553441,-0.019685904,-0.031203255,-0.022169644,0.008701228,-0.028192936,-0.019296082,0.012023895,-0.001989605,-0.031755287,-0.022972,0.025469877,-0.018223263,-0.015232883,0.012611992,-0.028399022,-0.010094599,0.0019712255,0.035053924,0.029220449,0.015471867,0.03469216,-0.02164564,-0.024589332,0.0055597876,0.036523018,0.025406735,0.008575423,-0.046560567,0.034826696,-0.012704743,0.0065535293,0.0075975335,0.0036054775,-0.06109399,-0.030314233,0.020993283,0.068458654,0.017405933,-0.033202365,-0.024284655,-0.012218176,-0.017923212,0.004655077,0.01693454,-0.0057825227,-0.0078081624,0.0025379523,-0.020802341,-0.055766854,0.0006152994,-0.04975595,0.0043186247,-0.031689223,-0.020330885,-0.0527029,-0.0120161865,0.0051825107,0.017166475,-0.0133216875,-0.013852841,0.019193767,-0.08606947,0.0042643365,0.028854618,